Language model created by QuickLM on Sun Jun  2 15:32:32 EDT 2013
Copyright (c) 1996-2010 Carnegie Mellon University and Alexander I. Rudnicky

The model is in standard ARPA format, designed by Doug Paul while he was at MITRE.

The code that was used to produce this language model is available in Open Source.
Please visit http://www.speech.cs.cmu.edu/tools/ for more information

The (fixed) discount mass is 0.5. The backoffs are computed using the ratio method.
This model based on a corpus of 11550 sentences and 442 words

\data\
ngram 1=442
ngram 2=1882
ngram 3=11999

\1-grams:
-1.3111 </s> -0.3010
-1.3111 <s> -0.2793
-3.8965 ABERDEEN -0.2793
-3.8965 ABILENE -0.2793
-3.8965 AIR -0.2793
-3.8965 AKRON -0.2793
-3.8965 ALBANY -0.2793
-3.8965 ALBUQUERQUE -0.2793
-3.8965 ALEXANDRIA -0.2793
-3.8965 ALLENTOWN -0.2793
-3.8965 AMARILLO -0.2793
-3.8965 ANA -0.2793
-3.8965 ANAHEIM -0.2793
-3.8965 ANCHORAGE -0.2793
-3.8965 ANGELES -0.2793
-3.8965 ANN -0.3010
-3.8965 ANTIOCH -0.2793
-3.8965 ANTONIO -0.2793
-3.8965 APPLE -0.3008
-3.8965 APPLETON -0.2793
-3.8965 ARBOR -0.2793
-3.8965 ARLINGTON -0.2793
-1.4872 ARRIVES -0.2711
-3.8965 ARTHUR -0.2793
-3.8965 ARVADA -0.2793
-3.8965 ASHEVILLE -0.2793
-1.3111 AT -0.2483
-3.8965 ATHENS -0.2793
-3.8965 ATLANTA -0.2793
-3.8965 ATLANTIC -0.3003
-3.8965 AUGUSTA -0.2793
-3.8965 AURORA -0.2793
-3.8965 AUSTIN -0.2793
-3.8965 BAKERSFIELD -0.2793
-3.8965 BALTIMORE -0.2793
-3.8965 BARBARA -0.2793
-3.8965 BARNSTABLE -0.2793
-3.8965 BATON -0.3010
-3.5955 BAY -0.2793
-2.9423 BEACH -0.2793
-3.8965 BEAUMONT -0.2793
-3.8965 BEDFORD -0.2793
-3.8965 BEL -0.3010
-3.8965 BELLEVUE -0.2793
-3.8965 BEND -0.2793
-3.8965 BERKELEY -0.2793
-3.8965 BERNARDINO -0.2793
-3.8965 BETHLEHEM -0.2793
-3.8965 BILLINGS -0.2793
-3.8965 BIRMINGHAM -0.2793
-3.8965 BLOOMINGTON -0.2793
-3.5955 BOISE -0.2785
-3.8965 BONITA -0.3008
-3.8965 BOSTON -0.2793
-3.8965 BOULDER -0.2793
-3.8965 BRADENTON -0.2793
-3.8965 BREMERTON -0.2793
-3.8965 BRIDGEPORT -0.2793
-3.8965 BRIGHTON -0.2793
-3.8965 BROWNSVILLE -0.2793
-3.8965 BRYAN -0.2793
-3.8965 BUENAVENTURA -0.2793
-3.8965 BUFFALO -0.2793
-3.8965 BURBANK -0.2793
-3.8965 BURLINGTON -0.2793
-3.8965 CAMBRIDGE -0.2793
-3.8965 CANTON -0.2793
-3.8965 CAPE -0.3009
-3.8965 CARROLLTON -0.2793
-3.8965 CARY -0.2793
-3.8965 CATHEDRAL -0.3003
-3.8965 CEDAR -0.3009
-3.8965 CHAMPAIGN -0.2793
-3.8965 CHANDLER -0.2793
-3.8965 CHARLES -0.2793
-3.5955 CHARLESTON -0.2793
-3.8965 CHARLOTTE -0.2793
-3.8965 CHATTANOOGA -0.2793
-3.8965 CHESAPEAKE -0.2793
-3.8965 CHICAGO -0.2793
-3.8965 CHRISTI -0.2793
-3.8965 CHULA -0.3010
-3.8965 CINCINNATI -0.2793
-2.7826 CITY -0.2793
-3.8965 CLARA -0.2793
-3.8965 CLARITA -0.2793
-3.8965 CLARKE -0.3009
-3.8965 CLARKSVILLE -0.2793
-3.8965 CLEARWATER -0.2793
-3.8965 CLEVELAND -0.2793
-3.8965 COLLEGE -0.3010
-3.8965 COLLINS -0.2793
-3.8965 COLORADO -0.3008
-3.8965 COLUMBIA -0.2793
-3.8965 COLUMBUS -0.2793
-3.8965 CONCORD -0.2793
-3.5955 CORAL -0.2790
-3.8965 CORONA -0.2793
-3.8965 CORPUS -0.3010
-3.8965 COSTA -0.3009
-3.4194 COUNTY -0.2793
-3.8965 COVINA -0.2793
-3.8965 CRUCES -0.2793
-3.8965 CRUZ -0.2793
-3.8965 CUCAMONGA -0.2793
-3.8965 DALLAS -0.2793
-3.8965 DALY -0.3003
-3.8965 DANBURY -0.2793
-3.8965 DAVENPORT -0.2793
-3.8965 DAVIDSON -0.3009
-3.8965 DAYTON -0.2793
-3.8965 DAYTONA -0.3005
-3.8965 DE -0.3010
-3.8965 DELTONA -0.2793
-3.8965 DENTON -0.2793
-3.8965 DENVER -0.2793
-3.8965 DES -0.3010
-3.8965 DETROIT -0.2793
-3.8965 DIEGO -0.2793
-3.8965 DOWNEY -0.2793
-3.8965 DULUTH -0.2793
-3.8965 DURHAM -0.2793
-1.9539 EIGHT -0.1622
-2.4551 EIGHTEEN -0.2564
-3.5955 EL -0.3009
-2.1338 ELEVEN -0.1622
-3.8965 ELIZABETH -0.2793
-3.8965 ELK -0.3009
-3.8965 ELKHART -0.2793
-3.8965 ERIE -0.2793
-3.8965 ESCONDIDO -0.2793
-3.8965 EUGENE -0.2793
-3.8965 EVANSVILLE -0.2793
-3.8965 FAIRFIELD -0.2793
-3.8965 FALLS -0.2793
-3.8965 FARGO -0.2793
-3.8965 FAYETTEVILLE -0.2793
-2.4992 FIFTEEN -0.2564
-2.1324 FIFTY -0.2368
-3.8965 FITCHBURG -0.2793
-1.9562 FIVE -0.1622
-3.8965 FLINT -0.2793
-3.8965 FONTANA -0.2793
-3.1184 FORT -0.3007
-2.0852 FORTY -0.2316
-1.9525 FOUR -0.1622
-2.4788 FOURTEEN -0.2564
-3.8965 FRANCISCO -0.2793
-3.8965 FREDERICK -0.2793
-3.8965 FREMONT -0.2793
-3.8965 FRESNO -0.2793
-3.8965 FULLERTON -0.2793
-3.8965 GAINESVILLE -0.2793
-3.8965 GARDEN -0.3009
-3.8965 GARLAND -0.2793
-3.8965 GASTONIA -0.2793
-3.8965 GILBERT -0.2793
-3.8965 GLENDALE -0.2793
-3.8965 GORDA -0.2793
-3.8965 GRACE -0.2793
-3.5955 GRAND -0.3009
-3.8965 GRAYSLAKE -0.2793
-3.8965 GREEN -0.3009
-3.8965 GREENBAY -0.2793
-3.8965 GREENSBORO -0.2793
-3.8965 GREENVILLE -0.2793
-3.5955 GROVE -0.2793
-3.8965 GULFPORT-BILOXI -0.2793
-3.8965 HAGERSTOWN -0.2793
-3.8965 HAMPTON -0.2793
-3.8965 HARLINGEN -0.2793
-3.8965 HARRISBURG -0.2793
-3.8965 HARTFORD -0.2793
-3.5955 HAVEN -0.2793
-3.8965 HAVRE -0.3010
-3.8965 HAYWARD -0.2793
-3.8965 HEIGHTS -0.2793
-3.8965 HEMET -0.2793
-3.8965 HENDERSON -0.2793
-3.8965 HESPERIA -0.2793
-3.8965 HIALEAH -0.2793
-3.8965 HICKORY -0.2793
-3.8965 HIGH -0.3010
-3.8965 HOLLYWOOD -0.2793
-3.8965 HONOLULU -0.2793
-3.8965 HOUMA -0.2793
-3.8965 HOUSTON -0.2793
-3.8965 HOWELL -0.2793
-3.5955 HUNTINGTON -0.2788
-3.8965 HUNTSVILLE -0.2793
-1.7882 IN -0.2786
-3.8965 INDEPENDENCE -0.2793
-3.8965 INDIANAPOLIS -0.2793
-3.8965 INGLEWOOD -0.2793
-3.8965 IRVINE -0.2793
-3.8965 IRVING -0.2793
-3.8965 JACKSON -0.2793
-3.8965 JACKSONVILLE -0.2793
-3.8965 JEFFERSON -0.2793
-3.8965 JERSEY -0.3003
-3.8965 JOHNSON -0.3003
-3.8965 JOLIET -0.2793
-3.8965 JOSE -0.2793
-3.8965 KAILUA -0.2793
-3.8965 KALAMAZOO -0.2793
-3.8965 KANEOHE -0.2793
-3.8965 KANSAS -0.3003
-3.8965 KENNEWICK -0.2793
-3.8965 KENOSHA -0.2793
-3.8965 KILLEEN -0.2793
-3.8965 KISSIMMEE -0.2793
-3.8965 KNOXVILLE -0.2793
-3.8965 LACEY -0.2793
-3.8965 LAFAYETTE -0.2793
-3.4194 LAKE -0.2998
-3.8965 LAKELAND -0.2793
-3.8965 LAKEWOOD -0.2793
-3.8965 LANCASTER -0.2793
-3.8965 LANSING -0.2793
-3.8965 LAREDO -0.2793
-3.4194 LAS -0.3009
-3.8965 LAUDERDALE -0.2793
-3.8965 LAYTON -0.2793
-1.7882 LEAVES -0.2786
-3.8965 LEOMINSTER -0.2793
-3.8965 LEWISVILLE -0.2793
-3.8965 LEXINGTON -0.2793
-3.8965 LINCOLN -0.2793
-3.8965 LITTLE -0.3010
-3.8965 LONDON -0.2793
-3.8965 LONG -0.3005
-3.8965 LORAIN -0.2793
-3.8965 LOS -0.3010
-3.5955 LOUIS -0.2793
-3.8965 LOUISVILLE -0.2793
-3.8965 LOWELL -0.2793
-3.8965 LUBBOCK -0.2793
-3.5955 LUCIE -0.2793
-3.8965 LYON -0.2793
-3.8965 MACON -0.2793
-3.8965 MADISON -0.2793
-3.8965 MANCHESTER -0.2793
-3.8965 MARIA -0.2793
-3.8965 MARINA -0.2793
-3.8965 MARYSVILLE -0.2793
-3.8965 MCALLEN -0.2793
-3.8965 MCHENRY -0.2793
-3.8965 MEDFORD -0.2793
-3.8965 MELBOURNE -0.2793
-3.8965 MEMPHIS -0.2793
-3.8965 MERCED -0.2793
-3.5955 MESA -0.2793
-3.8965 MESQUITE -0.2793
-3.8965 MIAMI -0.2793
-3.8965 MILWAUKEE -0.2793
-3.8965 MINNEAPOLIS -0.2793
-3.8965 MIRAMAR -0.2793
-3.8965 MISSION -0.3010
-3.8965 MOBILE -0.2793
-3.8965 MODESTO -0.2793
-3.8965 MOINES -0.2793
-3.8965 MONROE -0.2793
-3.8965 MONTE -0.2793
-3.8965 MONTEREY -0.2793
-3.8965 MONTGOMERY -0.2793
-3.8965 MORENO -0.3008
-3.8965 MURFREESBORO -0.2793
-3.8965 MURRIETA -0.2793
-3.8965 MUSKEGON -0.2793
-3.8965 MYRTLE -0.3005
-3.8965 NAPERVILLE -0.2793
-3.8965 NAPLES -0.2793
-3.8965 NASHUA -0.2793
-3.8965 NASHVILLE -0.2793
-3.1184 NEW -0.3006
-3.8965 NEWARK -0.2793
-3.8965 NEWBURGH -0.2793
-3.8965 NEWPORT -0.3010
-3.8965 NEWS -0.2793
-1.9832 NINE -0.1622
-2.4855 NINETEEN -0.2564
-3.8965 NORFOLK -0.2793
-3.8965 NORMAL -0.2793
-3.8965 NORMAN -0.2793
-3.4194 NORTH -0.3005
-3.8965 NORWALK -0.2793
-3.8965 NORWICH -0.2793
-3.8965 OAKLAND -0.2793
-3.8965 OAKS -0.2793
-3.8965 OCALA -0.2793
-3.8965 OCEANSIDE -0.2793
-3.8965 ODESSA -0.2793
-3.8965 OGDEN -0.2793
-4.8965 OH -0.2913
-3.8965 OKLAHOMA -0.3003
-3.8965 OLATHE -0.2793
-3.8965 OLYMPIA -0.2793
-3.8965 OMAHA -0.2793
-1.9532 ONE -0.1622
-3.8965 ONTARIO -0.2793
-3.5955 ORANGE -0.2793
-3.8965 OREM -0.2793
-3.8965 ORLANDO -0.2793
-3.8965 ORLEANS -0.2793
-3.8965 OVERLAND -0.3010
-3.8965 OXNARD -0.2793
-3.5955 PALM -0.3007
-3.8965 PALMDALE -0.2793
-3.8965 PANAMA -0.3003
-3.8965 PARK -0.2793
-3.8965 PASADENA -0.2793
-3.8965 PASO -0.2793
-3.8965 PATERSON -0.2793
-3.5955 PAUL -0.2793
-3.8965 PEMBROKE -0.3010
-3.8965 PENSACOLA -0.2793
-3.8965 PEORIA -0.2793
-3.5955 PETERSBURG -0.2793
-3.8965 PHILADELPHIA -0.2793
-3.8965 PHOENIX -0.2793
-3.8965 PINES -0.2793
-3.8965 PITTSBURGH -0.2793
-3.8965 PLANO -0.2793
-3.8965 POINT -0.2793
-3.8965 POMONA -0.2793
-3.8965 POMPANO -0.3005
-3.1976 PORT -0.2786
-3.8965 PORTLAND -0.2793
-3.8965 PORTSMOUTH -0.2793
-3.8965 POUGHKEEPSIE -0.2793
-3.8965 PRAIRIE -0.2793
-3.8965 PROVIDENCE -0.2793
-3.8965 PROVO -0.2793
-3.8965 PUEBLO -0.2793
-3.8965 PUNTA -0.3010
-3.8965 RACINE -0.2793
-3.8965 RALEIGH -0.2793
-3.8965 RANCHO -0.3010
-3.5955 RAPIDS -0.2793
-3.8965 READING -0.2793
-3.8965 REDDING -0.2793
-3.8965 RENO -0.2793
-3.8965 RICHLAND -0.2793
-3.5955 RICHMOND -0.2791
-3.8965 RIVERSIDE -0.2793
-3.8965 ROANOKE -0.2793
-3.8965 ROCHESTER -0.2793
-3.8965 ROCK -0.2793
-3.8965 ROCKFORD -0.2793
-3.8965 ROSA -0.2793
-3.8965 ROSEVILLE -0.2793
-3.8965 ROUGE -0.2793
-3.8965 ROUND -0.3009
-3.8965 SACRAMENTO -0.2793
-3.8965 SAGINAW -0.2793
-3.2945 SAINT -0.3006
-3.8965 SALEM -0.2793
-3.8965 SALINAS -0.2793
-3.8965 SALT -0.3009
-3.1184 SAN -0.3007
-3.0514 SANTA -0.3006
-3.8965 SARASOTA -0.2793
-3.8965 SAVANNAH -0.2793
-3.8965 SCOTTSDALE -0.2793
-3.8965 SCRANTON -0.2793
-3.8965 SEASIDE -0.2793
-3.8965 SEATTLE -0.2793
-3.8965 SEBASTIAN -0.2793
-1.9555 SEVEN -0.1622
-2.5015 SEVENTEEN -0.2564
-3.8965 SHREVEPORT -0.2793
-3.8965 SIMI -0.3008
-3.5955 SIOUX -0.3003
-1.9550 SIX -0.1622
-2.4646 SIXTEEN -0.2564
-3.8965 SMITH -0.2793
-3.5955 SOUTH -0.3009
-3.8965 SPARTANBURG -0.2793
-3.8965 SPOKANE -0.2793
-3.8965 SPRINGDALE -0.2793
-3.8965 SPRINGFIELD -0.2793
-3.2945 SPRINGS -0.2793
-3.2945 ST. -0.3006
-3.8965 STAMFORD -0.2793
-3.8965 STATION -0.2793
-3.8965 STERLING -0.3010
-3.8965 STOCKTON -0.2793
-3.8965 SUNNYVALE -0.2793
-3.8965 SYRACUSE -0.2793
-3.8965 TACOMA -0.2793
-3.8965 TALLAHASSEE -0.2793
-3.8965 TAMPA -0.2793
-3.8965 TEMECULA -0.2793
-3.8965 TEMPE -0.2793
-2.0979 TEN -0.1622
-2.4827 THIRTEEN -0.2564
-2.0541 THIRTY -0.2316
-3.8965 THORNTON -0.2793
-3.8965 THOUSAND -0.3010
-1.9617 THREE -0.1622
-3.8965 TOLEDO -0.2793
-3.8965 TOPEKA -0.2793
-3.8965 TORRANCE -0.2793
-1.3111 TRAIN -0.2297
-3.8965 TRENTON -0.2793
-3.8965 TUCSON -0.2793
-3.8965 TULSA -0.2793
-3.8965 TUSCALOOSA -0.2793
-2.4727 TWELVE -0.2564
-1.9695 TWENTY -0.2059
-1.9580 TWO -0.1622
-3.8965 TYLER -0.2793
-3.8965 UTICA -0.2793
-3.8965 VALLEJO -0.2793
-3.2945 VALLEY -0.2785
-3.8965 VANCOUVER -0.2793
-3.5955 VEGAS -0.2793
-3.8965 VERO -0.3005
-3.8965 VICTORVILLE -0.2793
-3.8965 VIEJO -0.2793
-3.8965 VIRGINIA -0.3005
-3.8965 VISALIA -0.2793
-3.8965 VISTA -0.2793
-3.8965 WACO -0.2793
-3.8965 WALTON -0.3005
-3.8965 WARREN -0.2793
-3.8965 WASHINGTON -0.2793
-3.8965 WASHINGTON.D.C -0.2793
-3.8965 WATERBURY -0.2793
-3.8965 WATERLOO -0.2793
-3.8965 WAYNE -0.2793
-3.5955 WEST -0.3008
-3.8965 WESTMINSTER -0.2793
-3.8965 WICHITA -0.2793
-3.8965 WILMINGTON -0.2793
-3.8965 WINSTON -0.2793
-3.8965 WINTER -0.3009
-3.8965 WORCESTER -0.2793
-3.8965 WORTH -0.2793
-3.8965 YAKIMA -0.2793
-3.8965 YONKERS -0.2793
-3.4194 YORK -0.2785

\2-grams:
-0.3010 <s> TRAIN 0.0000
-0.3010 ABERDEEN AT 0.0000
-0.3010 ABILENE AT -0.0356
-0.3010 AIR AT 0.0000
-0.3010 AKRON AT -0.0373
-0.3010 ALBANY AT -0.0708
-0.3010 ALBUQUERQUE AT -0.0379
-0.3010 ALEXANDRIA AT 0.0000
-0.3010 ALLENTOWN AT 0.0000
-0.3010 AMARILLO AT 0.0000
-0.3010 ANA AT -0.0378
-0.3010 ANAHEIM AT -0.0371
-0.3010 ANCHORAGE AT 0.0000
-0.3010 ANGELES AT 0.0000
-0.3010 ANN ARBOR 0.0000
-0.3010 ANTIOCH AT 0.0000
-0.3010 ANTONIO AT -0.0382
-0.3010 APPLE VALLEY -0.0969
-0.3010 APPLETON AT 0.0000
-0.3010 ARBOR AT 0.0000
-0.3010 ARLINGTON AT -0.0388
-3.1875 ARRIVES ABERDEEN 0.0000
-3.1875 ARRIVES ABILENE 0.0000
-3.1875 ARRIVES AKRON 0.0000
-3.1875 ARRIVES ALBANY 0.0000
-3.1875 ARRIVES ALBUQUERQUE 0.0000
-3.1875 ARRIVES ALEXANDRIA 0.0000
-3.1875 ARRIVES ALLENTOWN 0.0000
-3.1875 ARRIVES AMARILLO 0.0000
-3.1875 ARRIVES ANAHEIM 0.0000
-3.1875 ARRIVES ANCHORAGE 0.0000
-3.1875 ARRIVES ANN 0.0000
-3.1875 ARRIVES ANTIOCH 0.0000
-3.1875 ARRIVES APPLE 0.0000
-3.1875 ARRIVES APPLETON 0.0000
-3.1875 ARRIVES ARLINGTON 0.0000
-3.1875 ARRIVES ARVADA 0.0000
-3.1875 ARRIVES ASHEVILLE 0.0000
-3.1875 ARRIVES ATHENS 0.0000
-3.1875 ARRIVES ATLANTA 0.0000
-3.1875 ARRIVES ATLANTIC 0.0000
-3.1875 ARRIVES AUGUSTA 0.0000
-3.1875 ARRIVES AURORA 0.0000
-3.1875 ARRIVES AUSTIN 0.0000
-3.1875 ARRIVES BAKERSFIELD 0.0000
-3.1875 ARRIVES BALTIMORE 0.0000
-3.1875 ARRIVES BARNSTABLE 0.0000
-3.1875 ARRIVES BATON 0.0000
-3.1875 ARRIVES BEAUMONT 0.0000
-3.1875 ARRIVES BEL 0.0000
-3.1875 ARRIVES BELLEVUE 0.0000
-3.1875 ARRIVES BERKELEY 0.0000
-3.1875 ARRIVES BETHLEHEM 0.0000
-3.1875 ARRIVES BILLINGS 0.0000
-3.1875 ARRIVES BIRMINGHAM 0.0000
-3.1875 ARRIVES BLOOMINGTON 0.0000
-2.8865 ARRIVES BOISE 0.0000
-3.1875 ARRIVES BONITA 0.0000
-3.1875 ARRIVES BOSTON 0.0000
-3.1875 ARRIVES BOULDER 0.0000
-3.1875 ARRIVES BRADENTON 0.0000
-3.1875 ARRIVES BREMERTON 0.0000
-3.1875 ARRIVES BRIDGEPORT 0.0000
-3.1875 ARRIVES BRIGHTON 0.0000
-3.1875 ARRIVES BROWNSVILLE 0.0000
-3.1875 ARRIVES BRYAN 0.0000
-3.1875 ARRIVES BUFFALO 0.0000
-3.1875 ARRIVES BURBANK 0.0000
-3.1875 ARRIVES BURLINGTON 0.0000
-3.1875 ARRIVES CAMBRIDGE 0.0000
-3.1875 ARRIVES CANTON 0.0000
-3.1875 ARRIVES CAPE 0.0000
-3.1875 ARRIVES CARROLLTON 0.0000
-3.1875 ARRIVES CARY 0.0000
-3.1875 ARRIVES CATHEDRAL 0.0000
-3.1875 ARRIVES CEDAR 0.0000
-3.1875 ARRIVES CHAMPAIGN 0.0000
-3.1875 ARRIVES CHANDLER 0.0000
-3.1875 ARRIVES CHARLESTON 0.0000
-3.1875 ARRIVES CHARLOTTE 0.0000
-3.1875 ARRIVES CHATTANOOGA 0.0000
-3.1875 ARRIVES CHESAPEAKE 0.0000
-3.1875 ARRIVES CHICAGO 0.0000
-3.1875 ARRIVES CHULA 0.0000
-3.1875 ARRIVES CINCINNATI 0.0000
-3.1875 ARRIVES CLARKE 0.0000
-3.1875 ARRIVES CLARKSVILLE 0.0000
-3.1875 ARRIVES CLEARWATER 0.0000
-3.1875 ARRIVES CLEVELAND 0.0000
-3.1875 ARRIVES COLLEGE 0.0000
-3.1875 ARRIVES COLORADO 0.0000
-3.1875 ARRIVES COLUMBIA 0.0000
-3.1875 ARRIVES COLUMBUS 0.0000
-3.1875 ARRIVES CONCORD 0.0000
-3.1875 ARRIVES CORAL -0.1761
-3.1875 ARRIVES CORONA 0.0000
-3.1875 ARRIVES CORPUS 0.0000
-3.1875 ARRIVES COSTA 0.0000
-3.1875 ARRIVES DALLAS 0.0000
-3.1875 ARRIVES DALY 0.0000
-3.1875 ARRIVES DANBURY 0.0000
-3.1875 ARRIVES DAVENPORT 0.0000
-3.1875 ARRIVES DAVIDSON 0.0000
-3.1875 ARRIVES DAYTON 0.0000
-3.1875 ARRIVES DAYTONA 0.0000
-3.1875 ARRIVES DELTONA 0.0000
-3.1875 ARRIVES DENTON 0.0000
-3.1875 ARRIVES DENVER 0.0000
-3.1875 ARRIVES DES 0.0000
-3.1875 ARRIVES DETROIT 0.0000
-3.1875 ARRIVES DOWNEY 0.0000
-3.1875 ARRIVES DULUTH 0.0000
-3.1875 ARRIVES DURHAM 0.0000
-2.8865 ARRIVES EL 0.0000
-3.1875 ARRIVES ELIZABETH 0.0000
-3.1875 ARRIVES ELK 0.0000
-3.1875 ARRIVES ELKHART 0.0000
-3.1875 ARRIVES ERIE 0.0000
-3.1875 ARRIVES ESCONDIDO 0.0000
-3.1875 ARRIVES EUGENE 0.0000
-3.1875 ARRIVES EVANSVILLE 0.0000
-3.1875 ARRIVES FAIRFIELD 0.0000
-3.1875 ARRIVES FARGO 0.0000
-3.1875 ARRIVES FAYETTEVILLE 0.0000
-3.1875 ARRIVES FITCHBURG 0.0000
-3.1875 ARRIVES FLINT 0.0000
-3.1875 ARRIVES FONTANA 0.0000
-2.4094 ARRIVES FORT 0.0000
-3.1875 ARRIVES FREDERICK 0.0000
-3.1875 ARRIVES FREMONT 0.0000
-3.1875 ARRIVES FRESNO 0.0000
-3.1875 ARRIVES FULLERTON 0.0000
-3.1875 ARRIVES GAINESVILLE 0.0000
-3.1875 ARRIVES GARDEN 0.0000
-3.1875 ARRIVES GARLAND 0.0000
-3.1875 ARRIVES GASTONIA 0.0000
-3.1875 ARRIVES GILBERT 0.0000
-3.1875 ARRIVES GLENDALE 0.0000
-2.8865 ARRIVES GRAND 0.0000
-3.1875 ARRIVES GRAYSLAKE 0.0000
-3.1875 ARRIVES GREEN 0.0000
-3.1875 ARRIVES GREENBAY 0.0000
-3.1875 ARRIVES GREENSBORO 0.0000
-3.1875 ARRIVES GREENVILLE 0.0000
-3.1875 ARRIVES GULFPORT-BILOXI 0.0000
-3.1875 ARRIVES HAGERSTOWN 0.0000
-3.1875 ARRIVES HAMPTON 0.0000
-3.1875 ARRIVES HARLINGEN 0.0000
-3.1875 ARRIVES HARRISBURG 0.0000
-3.1875 ARRIVES HARTFORD 0.0000
-3.1875 ARRIVES HAVRE 0.0000
-3.1875 ARRIVES HAYWARD 0.0000
-3.1875 ARRIVES HEMET 0.0000
-3.1875 ARRIVES HENDERSON 0.0000
-3.1875 ARRIVES HESPERIA 0.0000
-3.1875 ARRIVES HIALEAH 0.0000
-3.1875 ARRIVES HICKORY 0.0000
-3.1875 ARRIVES HIGH 0.0000
-3.1875 ARRIVES HOLLYWOOD 0.0000
-3.1875 ARRIVES HONOLULU 0.0000
-3.1875 ARRIVES HOUMA 0.0000
-3.1875 ARRIVES HOUSTON 0.0000
-3.1875 ARRIVES HOWELL 0.0000
-2.8865 ARRIVES HUNTINGTON 0.0000
-3.1875 ARRIVES HUNTSVILLE 0.0000
-0.6021 ARRIVES IN 0.0000
-3.1875 ARRIVES INDEPENDENCE 0.0000
-3.1875 ARRIVES INDIANAPOLIS 0.0000
-3.1875 ARRIVES INGLEWOOD 0.0000
-3.1875 ARRIVES IRVINE 0.0000
-3.1875 ARRIVES IRVING 0.0000
-3.1875 ARRIVES JACKSON 0.0000
-3.1875 ARRIVES JACKSONVILLE 0.0000
-3.1875 ARRIVES JEFFERSON 0.0000
-3.1875 ARRIVES JERSEY 0.0000
-3.1875 ARRIVES JOHNSON 0.0000
-3.1875 ARRIVES JOLIET 0.0000
-3.1875 ARRIVES KAILUA 0.0000
-3.1875 ARRIVES KALAMAZOO 0.0000
-3.1875 ARRIVES KANEOHE 0.0000
-3.1875 ARRIVES KANSAS 0.0000
-3.1875 ARRIVES KENNEWICK 0.0000
-3.1875 ARRIVES KENOSHA 0.0000
-3.1875 ARRIVES KILLEEN 0.0000
-3.1875 ARRIVES KISSIMMEE 0.0000
-3.1875 ARRIVES KNOXVILLE 0.0000
-3.1875 ARRIVES LACEY 0.0000
-3.1875 ARRIVES LAFAYETTE 0.0000
-3.1875 ARRIVES LAKE -0.2218
-3.1875 ARRIVES LAKELAND 0.0000
-3.1875 ARRIVES LAKEWOOD 0.0000
-3.1875 ARRIVES LANCASTER 0.0000
-3.1875 ARRIVES LANSING 0.0000
-3.1875 ARRIVES LAREDO 0.0000
-2.8865 ARRIVES LAS 0.0000
-3.1875 ARRIVES LAYTON 0.0000
-3.1875 ARRIVES LEOMINSTER 0.0000
-3.1875 ARRIVES LEWISVILLE 0.0000
-3.1875 ARRIVES LEXINGTON 0.0000
-3.1875 ARRIVES LINCOLN 0.0000
-3.1875 ARRIVES LITTLE 0.0000
-3.1875 ARRIVES LONG 0.0000
-3.1875 ARRIVES LORAIN 0.0000
-3.1875 ARRIVES LOS 0.0000
-3.1875 ARRIVES LOUISVILLE 0.0000
-3.1875 ARRIVES LOWELL 0.0000
-3.1875 ARRIVES LUBBOCK 0.0000
-3.1875 ARRIVES MACON 0.0000
-3.1875 ARRIVES MADISON 0.0000
-3.1875 ARRIVES MANCHESTER 0.0000
-3.1875 ARRIVES MARINA 0.0000
-3.1875 ARRIVES MARYSVILLE 0.0000
-3.1875 ARRIVES MCALLEN 0.0000
-3.1875 ARRIVES MCHENRY 0.0000
-3.1875 ARRIVES MEDFORD 0.0000
-3.1875 ARRIVES MELBOURNE 0.0000
-3.1875 ARRIVES MEMPHIS 0.0000
-3.1875 ARRIVES MERCED 0.0000
-3.1875 ARRIVES MESA 0.0000
-3.1875 ARRIVES MESQUITE 0.0000
-3.1875 ARRIVES MIAMI 0.0000
-3.1875 ARRIVES MILWAUKEE 0.0000
-3.1875 ARRIVES MINNEAPOLIS 0.0000
-3.1875 ARRIVES MIRAMAR 0.0000
-3.1875 ARRIVES MISSION 0.0000
-3.1875 ARRIVES MOBILE 0.0000
-3.1875 ARRIVES MODESTO 0.0000
-3.1875 ARRIVES MONROE 0.0000
-3.1875 ARRIVES MONTEREY 0.0000
-3.1875 ARRIVES MONTGOMERY 0.0000
-3.1875 ARRIVES MORENO 0.0000
-3.1875 ARRIVES MURFREESBORO 0.0000
-3.1875 ARRIVES MURRIETA 0.0000
-3.1875 ARRIVES MUSKEGON 0.0000
-3.1875 ARRIVES MYRTLE 0.0000
-3.1875 ARRIVES NAPERVILLE 0.0000
-3.1875 ARRIVES NAPLES 0.0000
-3.1875 ARRIVES NASHUA 0.0000
-3.1875 ARRIVES NASHVILLE 0.0000
-2.4094 ARRIVES NEW 0.0000
-3.1875 ARRIVES NEWARK 0.0000
-3.1875 ARRIVES NEWBURGH 0.0000
-3.1875 ARRIVES NEWPORT 0.0000
-3.1875 ARRIVES NORFOLK 0.0000
-3.1875 ARRIVES NORMAL 0.0000
-3.1875 ARRIVES NORMAN 0.0000
-2.7104 ARRIVES NORTH 0.0000
-3.1875 ARRIVES NORWALK 0.0000
-3.1875 ARRIVES NORWICH 0.0000
-3.1875 ARRIVES OAKLAND 0.0000
-3.1875 ARRIVES OCALA 0.0000
-3.1875 ARRIVES OCEANSIDE 0.0000
-3.1875 ARRIVES ODESSA 0.0000
-3.1875 ARRIVES OGDEN 0.0000
-3.1875 ARRIVES OKLAHOMA 0.0000
-3.1875 ARRIVES OLATHE 0.0000
-3.1875 ARRIVES OLYMPIA 0.0000
-3.1875 ARRIVES OMAHA 0.0000
-3.1875 ARRIVES ONTARIO 0.0000
-3.1875 ARRIVES ORANGE 0.0000
-3.1875 ARRIVES OREM 0.0000
-3.1875 ARRIVES ORLANDO 0.0000
-3.1875 ARRIVES OVERLAND 0.0000
-3.1875 ARRIVES OXNARD 0.0000
-2.8865 ARRIVES PALM 0.0000
-3.1875 ARRIVES PALMDALE 0.0000
-3.1875 ARRIVES PANAMA 0.0000
-3.1875 ARRIVES PASADENA 0.0000
-3.1875 ARRIVES PATERSON 0.0000
-3.1875 ARRIVES PEMBROKE 0.0000
-3.1875 ARRIVES PENSACOLA 0.0000
-3.1875 ARRIVES PEORIA 0.0000
-3.1875 ARRIVES PHILADELPHIA 0.0000
-3.1875 ARRIVES PHOENIX 0.0000
-3.1875 ARRIVES PITTSBURGH 0.0000
-3.1875 ARRIVES PLANO 0.0000
-3.1875 ARRIVES POMONA 0.0000
-3.1875 ARRIVES POMPANO 0.0000
-2.5855 ARRIVES PORT -0.0792
-3.1875 ARRIVES PORTLAND 0.0000
-3.1875 ARRIVES PORTSMOUTH 0.0000
-3.1875 ARRIVES POUGHKEEPSIE 0.0000
-3.1875 ARRIVES PROVIDENCE 0.0000
-3.1875 ARRIVES PROVO 0.0000
-3.1875 ARRIVES PUEBLO 0.0000
-3.1875 ARRIVES PUNTA 0.0000
-3.1875 ARRIVES RACINE 0.0000
-3.1875 ARRIVES RALEIGH 0.0000
-3.1875 ARRIVES RANCHO 0.0000
-3.1875 ARRIVES READING 0.0000
-3.1875 ARRIVES REDDING 0.0000
-3.1875 ARRIVES RENO 0.0000
-3.1875 ARRIVES RICHLAND 0.0000
-2.8865 ARRIVES RICHMOND 0.0000
-3.1875 ARRIVES RIVERSIDE 0.0000
-3.1875 ARRIVES ROANOKE 0.0000
-3.1875 ARRIVES ROCHESTER 0.0000
-3.1875 ARRIVES ROCKFORD 0.0000
-3.1875 ARRIVES ROSEVILLE 0.0000
-3.1875 ARRIVES ROUND 0.0000
-3.1875 ARRIVES SACRAMENTO 0.0000
-3.1875 ARRIVES SAGINAW 0.0000
-2.7104 ARRIVES SAINT -0.0969
-3.1875 ARRIVES SALEM 0.0000
-3.1875 ARRIVES SALINAS 0.0000
-3.1875 ARRIVES SALT 0.0000
-2.4094 ARRIVES SAN 0.0000
-2.3424 ARRIVES SANTA -0.0000
-3.1875 ARRIVES SARASOTA 0.0000
-3.1875 ARRIVES SAVANNAH 0.0000
-3.1875 ARRIVES SCOTTSDALE 0.0000
-3.1875 ARRIVES SCRANTON 0.0000
-3.1875 ARRIVES SEASIDE 0.0000
-3.1875 ARRIVES SEATTLE 0.0000
-3.1875 ARRIVES SEBASTIAN 0.0000
-3.1875 ARRIVES SHREVEPORT 0.0000
-3.1875 ARRIVES SIMI 0.0000
-2.8865 ARRIVES SIOUX 0.0000
-2.8865 ARRIVES SOUTH 0.0000
-3.1875 ARRIVES SPARTANBURG 0.0000
-3.1875 ARRIVES SPOKANE 0.0000
-3.1875 ARRIVES SPRINGDALE 0.0000
-3.1875 ARRIVES SPRINGFIELD 0.0000
-2.7104 ARRIVES ST. -0.0969
-3.1875 ARRIVES STAMFORD 0.0000
-3.1875 ARRIVES STERLING 0.0000
-3.1875 ARRIVES STOCKTON 0.0000
-3.1875 ARRIVES SUNNYVALE 0.0000
-3.1875 ARRIVES SYRACUSE 0.0000
-3.1875 ARRIVES TACOMA 0.0000
-3.1875 ARRIVES TALLAHASSEE 0.0000
-3.1875 ARRIVES TAMPA 0.0000
-3.1875 ARRIVES TEMECULA 0.0000
-3.1875 ARRIVES TEMPE 0.0000
-3.1875 ARRIVES THORNTON 0.0000
-3.1875 ARRIVES THOUSAND 0.0000
-3.1875 ARRIVES TOLEDO 0.0000
-3.1875 ARRIVES TOPEKA 0.0000
-3.1875 ARRIVES TORRANCE 0.0000
-3.1875 ARRIVES TRENTON 0.0000
-3.1875 ARRIVES TUCSON 0.0000
-3.1875 ARRIVES TULSA 0.0000
-3.1875 ARRIVES TUSCALOOSA 0.0000
-3.1875 ARRIVES TYLER 0.0000
-3.1875 ARRIVES UTICA 0.0000
-3.1875 ARRIVES VALLEJO 0.0000
-3.1875 ARRIVES VANCOUVER 0.0000
-3.1875 ARRIVES VERO 0.0000
-3.1875 ARRIVES VICTORVILLE 0.0000
-3.1875 ARRIVES VIRGINIA 0.0000
-3.1875 ARRIVES VISALIA 0.0000
-3.1875 ARRIVES WACO 0.0000
-3.1875 ARRIVES WARREN 0.0000
-3.1875 ARRIVES WASHINGTON 0.0000
-3.1875 ARRIVES WASHINGTON.D.C 0.0000
-3.1875 ARRIVES WATERBURY 0.0000
-3.1875 ARRIVES WATERLOO 0.0000
-2.8865 ARRIVES WEST 0.0000
-3.1875 ARRIVES WESTMINSTER 0.0000
-3.1875 ARRIVES WICHITA 0.0000
-3.1875 ARRIVES WILMINGTON 0.0000
-3.1875 ARRIVES WINSTON 0.0000
-3.1875 ARRIVES WINTER 0.0000
-3.1875 ARRIVES WORCESTER 0.0000
-3.1875 ARRIVES YAKIMA 0.0000
-3.1875 ARRIVES YONKERS 0.0000
-3.1875 ARRIVES YORK -0.1249
-0.3010 ARTHUR AT 0.0000
-0.3010 ARVADA AT 0.0000
-0.3010 ASHEVILLE AT -0.0383
-1.3508 AT EIGHT -0.2063
-1.3689 AT ELEVEN -0.1557
-1.3478 AT FIVE -0.2051
-1.3391 AT FOUR -0.2038
-1.3363 AT NINE -0.1949
-1.3408 AT ONE -0.2040
-1.3302 AT SEVEN -0.2007
-1.3375 AT SIX -0.2028
-1.3310 AT TEN -0.1549
-1.3433 AT THREE -0.2025
-1.3424 AT TWO -0.2032
-0.3010 ATHENS AT 0.0000
-0.3010 ATLANTA AT -0.0378
-0.3010 ATLANTIC CITY 0.0000
-0.3010 AUGUSTA AT 0.0000
-0.3010 AURORA AT 0.0000
-0.3010 AUSTIN AT 0.0000
-0.3010 BAKERSFIELD AT 0.0000
-0.3010 BALTIMORE AT 0.0000
-0.3010 BARBARA AT 0.0000
-0.3010 BARNSTABLE AT 0.0000
-0.3010 BATON ROUGE 0.0000
-0.3010 BAY AT 0.0000
-0.3010 BEACH AT 0.0000
-0.3010 BEAUMONT AT 0.0000
-0.3010 BEDFORD AT 0.0000
-0.3010 BEL AIR 0.0000
-0.3010 BELLEVUE AT -0.0388
-0.3010 BEND AT -0.0371
-0.3010 BERKELEY AT 0.0000
-0.3010 BERNARDINO AT -0.0383
-0.3010 BETHLEHEM AT -0.0378
-0.3010 BILLINGS AT -0.0738
-0.3010 BIRMINGHAM AT -0.0383
-0.3010 BLOOMINGTON AT -0.0356
-0.6021 BOISE AT -0.0379
-0.6021 BOISE CITY 0.0000
-0.3010 BONITA SPRINGS 0.0000
-0.3010 BOSTON AT 0.0000
-0.3010 BOULDER AT 0.0000
-0.3010 BRADENTON AT -0.0377
-0.3010 BREMERTON AT 0.0000
-0.3010 BRIDGEPORT AT 0.0000
-0.3010 BRIGHTON AT -0.0379
-0.3010 BROWNSVILLE AT 0.0000
-0.3010 BRYAN AT -0.0381
-0.3010 BUENAVENTURA AT 0.0000
-0.3010 BUFFALO AT 0.0000
-0.3010 BURBANK AT -0.0356
-0.3010 BURLINGTON AT -0.0727
-0.3010 CAMBRIDGE AT 0.0000
-0.3010 CANTON AT 0.0000
-0.3010 CAPE CORAL -0.1761
-0.3010 CARROLLTON AT 0.0000
-0.3010 CARY AT 0.0000
-0.3010 CATHEDRAL CITY 0.0000
-0.3010 CEDAR RAPIDS 0.0000
-0.3010 CHAMPAIGN AT 0.0000
-0.3010 CHANDLER AT 0.0000
-0.3010 CHARLES AT -0.0383
-0.3010 CHARLESTON AT 0.0000
-0.3010 CHARLOTTE AT -0.0378
-0.3010 CHATTANOOGA AT 0.0000
-0.3010 CHESAPEAKE AT -0.0356
-0.3010 CHICAGO AT -0.0381
-0.3010 CHRISTI AT 0.0000
-0.3010 CHULA VISTA 0.0000
-0.3010 CINCINNATI AT 0.0000
-0.3010 CITY AT 0.0000
-0.3010 CLARA AT 0.0000
-0.3010 CLARITA AT -0.0379
-0.3010 CLARKE COUNTY 0.0000
-0.3010 CLARKSVILLE AT 0.0000
-0.3010 CLEARWATER AT -0.0381
-0.3010 CLEVELAND AT -0.0383
-0.3010 COLLEGE STATION 0.0000
-0.3010 COLLINS AT 0.0000
-0.3010 COLORADO SPRINGS 0.0000
-0.3010 COLUMBIA AT -0.0377
-0.3010 COLUMBUS AT -0.0378
-0.3010 CONCORD AT 0.0000
-0.6021 CORAL AT -0.0379
-0.6021 CORAL SPRINGS 0.0000
-0.3010 CORONA AT 0.0000
-0.3010 CORPUS CHRISTI 0.0000
-0.3010 COSTA MESA 0.0000
-0.3010 COUNTY AT 0.0000
-0.3010 COVINA AT -0.0356
-0.3010 CRUCES AT 0.0000
-0.3010 CRUZ AT -0.0373
-0.3010 CUCAMONGA AT 0.0000
-0.3010 DALLAS AT 0.0000
-0.3010 DALY CITY 0.0000
-0.3010 DANBURY AT -0.0379
-0.3010 DAVENPORT AT -0.0371
-0.3010 DAVIDSON COUNTY 0.0000
-0.3010 DAYTON AT 0.0000
-0.3010 DAYTONA BEACH 0.0000
-0.3010 DE GRACE 0.0000
-0.3010 DELTONA AT -0.0738
-0.3010 DENTON AT -0.0356
-0.3010 DENVER AT 0.0000
-0.3010 DES MOINES 0.0000
-0.3010 DETROIT AT -0.0383
-0.3010 DIEGO AT 0.0000
-0.3010 DOWNEY AT 0.0000
-0.3010 DULUTH AT 0.0000
-0.3010 DURHAM AT -0.0715
-0.7097 EIGHT </s> -0.3010
-1.1468 EIGHT ARRIVES -0.1065
-2.5747 EIGHT EIGHT -0.2068
-2.6069 EIGHT EIGHTEEN -0.2443
-2.3784 EIGHT ELEVEN -0.2757
-2.4421 EIGHT FIFTEEN -0.2471
-1.5447 EIGHT FIFTY 0.0000
-2.4198 EIGHT FIVE -0.2093
-1.4584 EIGHT FORTY 0.0000
-2.4421 EIGHT FOUR -0.2079
-2.3406 EIGHT FOURTEEN -0.2406
-1.4242 EIGHT LEAVES -0.1876
-2.6069 EIGHT NINE -0.2215
-2.5447 EIGHT NINETEEN -0.2466
-2.4655 EIGHT ONE -0.2099
-2.6416 EIGHT SEVEN -0.2100
-2.4421 EIGHT SEVENTEEN -0.2441
-2.4904 EIGHT SIX -0.2122
-2.6069 EIGHT SIXTEEN -0.2457
-2.5167 EIGHT TEN -0.2758
-2.4198 EIGHT THIRTEEN -0.2390
-1.4560 EIGHT THIRTY 0.0000
-2.3058 EIGHT THREE -0.2125
-2.4421 EIGHT TWELVE -0.2349
-1.4955 EIGHT TWENTY -0.0836
-2.3058 EIGHT TWO -0.2113
-0.9121 EIGHTEEN </s> -0.3010
-0.5702 EIGHTEEN ARRIVES -0.0889
-0.9643 EIGHTEEN LEAVES -0.1905
-0.6021 EL MONTE 0.0000
-0.6021 EL PASO 0.0000
-1.2464 ELEVEN </s> -0.3010
-0.9857 ELEVEN ARRIVES -0.1109
-2.3947 ELEVEN EIGHT -0.2068
-2.3367 ELEVEN EIGHTEEN -0.2443
-2.3367 ELEVEN ELEVEN -0.2757
-2.1429 ELEVEN FIFTEEN -0.2471
-1.3735 ELEVEN FIFTY 0.0000
-2.2621 ELEVEN FIVE -0.2093
-1.3155 ELEVEN FORTY 0.0000
-2.1791 ELEVEN FOUR -0.2079
-2.4616 ELEVEN FOURTEEN -0.2406
-1.2553 ELEVEN LEAVES -0.1824
-2.2186 ELEVEN NINE -0.2215
-2.4269 ELEVEN NINETEEN -0.2466
-2.4616 ELEVEN ONE -0.2099
-2.2398 ELEVEN SEVEN -0.2100
-2.3367 ELEVEN SEVENTEEN -0.2441
-2.5866 ELEVEN SIX -0.2122
-2.1606 ELEVEN SIXTEEN -0.2457
-2.2621 ELEVEN TEN -0.2758
-2.3104 ELEVEN THIRTEEN -0.2390
-1.2880 ELEVEN THIRTY 0.0000
-2.3367 ELEVEN THREE -0.2125
-2.2398 ELEVEN TWELVE -0.2349
-1.3340 ELEVEN TWENTY -0.0836
-2.2186 ELEVEN TWO -0.2113
-0.3010 ELIZABETH AT 0.0000
-0.3010 ELK GROVE 0.0000
-0.3010 ELKHART AT 0.0000
-0.3010 ERIE AT -0.0356
-0.3010 ESCONDIDO AT 0.0000
-0.3010 EUGENE AT -0.0377
-0.3010 EVANSVILLE AT 0.0000
-0.3010 FAIRFIELD AT 0.0000
-0.3010 FALLS AT -0.0356
-0.3010 FARGO AT -0.0378
-0.3010 FAYETTEVILLE AT -0.0732
-0.9325 FIFTEEN </s> -0.3010
-0.6192 FIFTEEN ARRIVES -0.1056
-0.8451 FIFTEEN LEAVES -0.1742
-1.2823 FIFTY </s> -0.3010
-1.2119 FIFTY EIGHT -0.2068
-1.2728 FIFTY FIVE -0.2093
-1.1901 FIFTY FOUR -0.2079
-1.2846 FIFTY ONE -0.2099
-1.2327 FIFTY SEVEN -0.2100
-1.2370 FIFTY SIX -0.2122
-1.2919 FIFTY THREE -0.2125
-1.3093 FIFTY TWO -0.2113
-0.3010 FITCHBURG AT 0.0000
-0.7202 FIVE </s> -0.3010
-1.1480 FIVE ARRIVES -0.1047
-2.4881 FIVE EIGHT -0.2068
-2.5144 FIVE EIGHTEEN -0.2443
-2.4881 FIVE ELEVEN -0.2757
-2.6771 FIVE FIFTEEN -0.2471
-1.5037 FIVE FIFTY 0.0000
-2.2713 FIVE FIVE -0.2093
-1.4608 FIVE FORTY 0.0000
-2.6771 FIVE FOUR -0.2079
-2.5724 FIVE FOURTEEN -0.2406
-1.3963 FIVE LEAVES -0.1757
-2.6046 FIVE NINE -0.2215
-2.4881 FIVE NINETEEN -0.2466
-2.3963 FIVE ONE -0.2099
-2.7185 FIVE SEVEN -0.2100
-2.6046 FIVE SEVENTEEN -0.2441
-2.5724 FIVE SIX -0.2122
-2.5144 FIVE SIXTEEN -0.2457
-2.3206 FIVE TEN -0.2758
-2.3206 FIVE THIRTEEN -0.2390
-1.4329 FIVE THIRTY 0.0000
-2.4175 FIVE THREE -0.2125
-2.3963 FIVE TWELVE -0.2349
-1.4830 FIVE TWENTY -0.0836
-2.4632 FIVE TWO -0.2113
-0.3010 FLINT AT -0.0382
-0.3010 FONTANA AT -0.0379
-1.0792 FORT COLLINS 0.0000
-1.0792 FORT LAUDERDALE 0.0000
-1.0792 FORT SMITH 0.0000
-1.0792 FORT WALTON 0.0000
-1.0792 FORT WAYNE 0.0000
-1.0792 FORT WORTH 0.0000
-1.2799 FORTY </s> -0.3010
-1.2842 FORTY EIGHT -0.2068
-1.2799 FORTY FIVE -0.2093
-1.2652 FORTY FOUR -0.2079
-1.2863 FORTY NINE -0.2215
-1.3247 FORTY ONE -0.2099
-1.3366 FORTY SEVEN -0.2100
-1.3153 FORTY SIX -0.2122
-1.3200 FORTY THREE -0.2125
-1.3247 FORTY TWO -0.2113
-0.7144 FOUR </s> -0.3010
-1.1311 FOUR ARRIVES -0.1025
-2.4434 FOUR EIGHT -0.2068
-2.3419 FOUR EIGHTEEN -0.2443
-2.3072 FOUR ELEVEN -0.2757
-2.3797 FOUR FIFTEEN -0.2471
-1.5073 FOUR FIFTY 0.0000
-2.5760 FOUR FIVE -0.2093
-1.4597 FOUR FORTY 0.0000
-2.4211 FOUR FOUR -0.2079
-2.4211 FOUR FOURTEEN -0.2406
-1.4891 FOUR LEAVES -0.1934
-2.5760 FOUR NINE -0.2215
-2.3072 FOUR NINETEEN -0.2466
-3.7221 FOUR OH -0.1249
-2.3999 FOUR ONE -0.2099
-2.8191 FOUR SEVEN -0.2100
-2.6807 FOUR SEVENTEEN -0.2441
-2.6430 FOUR SIX -0.2122
-2.5180 FOUR SIXTEEN -0.2457
-2.3999 FOUR TEN -0.2758
-2.5180 FOUR THIRTEEN -0.2390
-1.4299 FOUR THIRTY -0.0000
-2.6082 FOUR THREE -0.2125
-2.5760 FOUR TWELVE -0.2349
-1.4866 FOUR TWENTY -0.0836
-2.3242 FOUR TWO -0.2113
-0.8863 FOURTEEN </s> -0.3010
-0.5960 FOURTEEN ARRIVES -0.1012
-0.9334 FOURTEEN LEAVES -0.1912
-0.3010 FRANCISCO AT -0.0383
-0.3010 FREDERICK AT 0.0000
-0.3010 FREMONT AT -0.0377
-0.3010 FRESNO AT 0.0000
-0.3010 FULLERTON AT -0.0723
-0.3010 GAINESVILLE AT 0.0000
-0.3010 GARDEN GROVE 0.0000
-0.3010 GARLAND AT -0.0378
-0.3010 GASTONIA AT -0.0379
-0.3010 GILBERT AT -0.0722
-0.3010 GLENDALE AT 0.0000
-0.3010 GORDA AT -0.0382
-0.3010 GRACE AT -0.0377
-0.6021 GRAND PRAIRIE 0.0000
-0.6021 GRAND RAPIDS 0.0000
-0.3010 GRAYSLAKE AT 0.0000
-0.3010 GREEN BAY 0.0000
-0.3010 GREENBAY AT 0.0000
-0.3010 GREENSBORO AT -0.0378
-0.3010 GREENVILLE AT -0.0379
-0.3010 GROVE AT 0.0000
-0.3010 GULFPORT-BILOXI AT 0.0000
-0.3010 HAGERSTOWN AT -0.0719
-0.3010 HAMPTON AT 0.0000
-0.3010 HARLINGEN AT 0.0000
-0.3010 HARRISBURG AT -0.0727
-0.3010 HARTFORD AT -0.0383
-0.3010 HAVEN AT 0.0000
-0.3010 HAVRE DE 0.0000
-0.3010 HAYWARD AT -0.0726
-0.3010 HEIGHTS AT 0.0000
-0.3010 HEMET AT 0.0000
-0.3010 HENDERSON AT -0.0728
-0.3010 HESPERIA AT -0.0371
-0.3010 HIALEAH AT 0.0000
-0.3010 HICKORY AT -0.0731
-0.3010 HIGH POINT 0.0000
-0.3010 HOLLYWOOD AT -0.0382
-0.3010 HONOLULU AT -0.0377
-0.3010 HOUMA AT 0.0000
-0.3010 HOUSTON AT -0.0356
-0.3010 HOWELL AT -0.0388
-0.6021 HUNTINGTON AT -0.0383
-0.6021 HUNTINGTON BEACH 0.0000
-0.3010 HUNTSVILLE AT 0.0000
-2.8865 IN ABERDEEN 0.0000
-2.8865 IN ABILENE 0.0000
-2.8865 IN AKRON 0.0000
-2.8865 IN ALBANY 0.0000
-2.8865 IN ALBUQUERQUE 0.0000
-2.8865 IN ALEXANDRIA 0.0000
-2.8865 IN ALLENTOWN 0.0000
-2.8865 IN AMARILLO 0.0000
-2.8865 IN ANAHEIM 0.0000
-2.8865 IN ANCHORAGE 0.0000
-2.8865 IN ANN 0.0000
-2.8865 IN ANTIOCH 0.0000
-2.8865 IN APPLE 0.0000
-2.8865 IN APPLETON 0.0000
-2.8865 IN ARLINGTON 0.0000
-2.8865 IN ARVADA 0.0000
-2.8865 IN ASHEVILLE 0.0000
-2.8865 IN ATHENS 0.0000
-2.8865 IN ATLANTA 0.0000
-2.8865 IN ATLANTIC 0.0000
-2.8865 IN AUGUSTA 0.0000
-2.8865 IN AURORA 0.0000
-2.8865 IN AUSTIN 0.0000
-2.8865 IN BAKERSFIELD 0.0000
-2.8865 IN BALTIMORE 0.0000
-2.8865 IN BARNSTABLE 0.0000
-2.8865 IN BATON 0.0000
-2.8865 IN BEAUMONT 0.0000
-2.8865 IN BEL 0.0000
-2.8865 IN BELLEVUE 0.0000
-2.8865 IN BERKELEY 0.0000
-2.8865 IN BETHLEHEM 0.0000
-2.8865 IN BILLINGS 0.0000
-2.8865 IN BIRMINGHAM 0.0000
-2.8865 IN BLOOMINGTON 0.0000
-2.5855 IN BOISE 0.0000
-2.8865 IN BONITA 0.0000
-2.8865 IN BOSTON 0.0000
-2.8865 IN BOULDER 0.0000
-2.8865 IN BRADENTON 0.0000
-2.8865 IN BREMERTON 0.0000
-2.8865 IN BRIDGEPORT 0.0000
-2.8865 IN BRIGHTON 0.0000
-2.8865 IN BROWNSVILLE 0.0000
-2.8865 IN BRYAN 0.0000
-2.8865 IN BUFFALO 0.0000
-2.8865 IN BURBANK 0.0000
-2.8865 IN BURLINGTON 0.0000
-2.8865 IN CAMBRIDGE 0.0000
-2.8865 IN CANTON 0.0000
-2.8865 IN CAPE 0.0000
-2.8865 IN CARROLLTON 0.0000
-2.8865 IN CARY 0.0000
-2.8865 IN CATHEDRAL 0.0000
-2.8865 IN CEDAR 0.0000
-2.8865 IN CHAMPAIGN 0.0000
-2.8865 IN CHANDLER 0.0000
-2.8865 IN CHARLESTON 0.0000
-2.8865 IN CHARLOTTE 0.0000
-2.8865 IN CHATTANOOGA 0.0000
-2.8865 IN CHESAPEAKE 0.0000
-2.8865 IN CHICAGO 0.0000
-2.8865 IN CHULA 0.0000
-2.8865 IN CINCINNATI 0.0000
-2.8865 IN CLARKE 0.0000
-2.8865 IN CLARKSVILLE 0.0000
-2.8865 IN CLEARWATER 0.0000
-2.8865 IN CLEVELAND 0.0000
-2.8865 IN COLLEGE 0.0000
-2.8865 IN COLORADO 0.0000
-2.8865 IN COLUMBIA 0.0000
-2.8865 IN COLUMBUS 0.0000
-2.8865 IN CONCORD 0.0000
-2.8865 IN CORAL -0.1761
-2.8865 IN CORONA 0.0000
-2.8865 IN CORPUS 0.0000
-2.8865 IN COSTA 0.0000
-2.8865 IN DALLAS 0.0000
-2.8865 IN DALY 0.0000
-2.8865 IN DANBURY 0.0000
-2.8865 IN DAVENPORT 0.0000
-2.8865 IN DAVIDSON 0.0000
-2.8865 IN DAYTON 0.0000
-2.8865 IN DAYTONA 0.0000
-2.8865 IN DELTONA 0.0000
-2.8865 IN DENTON 0.0000
-2.8865 IN DENVER 0.0000
-2.8865 IN DES 0.0000
-2.8865 IN DETROIT 0.0000
-2.8865 IN DOWNEY 0.0000
-2.8865 IN DULUTH 0.0000
-2.8865 IN DURHAM 0.0000
-2.5855 IN EL 0.0000
-2.8865 IN ELIZABETH 0.0000
-2.8865 IN ELK 0.0000
-2.8865 IN ELKHART 0.0000
-2.8865 IN ERIE 0.0000
-2.8865 IN ESCONDIDO 0.0000
-2.8865 IN EUGENE 0.0000
-2.8865 IN EVANSVILLE 0.0000
-2.8865 IN FAIRFIELD 0.0000
-2.8865 IN FARGO 0.0000
-2.8865 IN FAYETTEVILLE 0.0000
-2.8865 IN FITCHBURG 0.0000
-2.8865 IN FLINT 0.0000
-2.8865 IN FONTANA 0.0000
-2.1083 IN FORT 0.0000
-2.8865 IN FREDERICK 0.0000
-2.8865 IN FREMONT 0.0000
-2.8865 IN FRESNO 0.0000
-2.8865 IN FULLERTON 0.0000
-2.8865 IN GAINESVILLE 0.0000
-2.8865 IN GARDEN 0.0000
-2.8865 IN GARLAND 0.0000
-2.8865 IN GASTONIA 0.0000
-2.8865 IN GILBERT 0.0000
-2.8865 IN GLENDALE 0.0000
-2.5855 IN GRAND 0.0000
-2.8865 IN GRAYSLAKE 0.0000
-2.8865 IN GREEN 0.0000
-2.8865 IN GREENBAY 0.0000
-2.8865 IN GREENSBORO 0.0000
-2.8865 IN GREENVILLE 0.0000
-2.8865 IN GULFPORT-BILOXI 0.0000
-2.8865 IN HAGERSTOWN 0.0000
-2.8865 IN HAMPTON 0.0000
-2.8865 IN HARLINGEN 0.0000
-2.8865 IN HARRISBURG 0.0000
-2.8865 IN HARTFORD 0.0000
-2.8865 IN HAVRE 0.0000
-2.8865 IN HAYWARD 0.0000
-2.8865 IN HEMET 0.0000
-2.8865 IN HENDERSON 0.0000
-2.8865 IN HESPERIA 0.0000
-2.8865 IN HIALEAH 0.0000
-2.8865 IN HICKORY 0.0000
-2.8865 IN HIGH 0.0000
-2.8865 IN HOLLYWOOD 0.0000
-2.8865 IN HONOLULU 0.0000
-2.8865 IN HOUMA 0.0000
-2.8865 IN HOUSTON 0.0000
-2.8865 IN HOWELL 0.0000
-2.5855 IN HUNTINGTON 0.0000
-2.8865 IN HUNTSVILLE 0.0000
-2.8865 IN INDEPENDENCE 0.0000
-2.8865 IN INDIANAPOLIS 0.0000
-2.8865 IN INGLEWOOD 0.0000
-2.8865 IN IRVINE 0.0000
-2.8865 IN IRVING 0.0000
-2.8865 IN JACKSON 0.0000
-2.8865 IN JACKSONVILLE 0.0000
-2.8865 IN JEFFERSON 0.0000
-2.8865 IN JERSEY 0.0000
-2.8865 IN JOHNSON 0.0000
-2.8865 IN JOLIET 0.0000
-2.8865 IN KAILUA 0.0000
-2.8865 IN KALAMAZOO 0.0000
-2.8865 IN KANEOHE 0.0000
-2.8865 IN KANSAS 0.0000
-2.8865 IN KENNEWICK 0.0000
-2.8865 IN KENOSHA 0.0000
-2.8865 IN KILLEEN 0.0000
-2.8865 IN KISSIMMEE 0.0000
-2.8865 IN KNOXVILLE 0.0000
-2.8865 IN LACEY 0.0000
-2.8865 IN LAFAYETTE 0.0000
-2.8865 IN LAKE -0.2218
-2.8865 IN LAKELAND 0.0000
-2.8865 IN LAKEWOOD 0.0000
-2.8865 IN LANCASTER 0.0000
-2.8865 IN LANSING 0.0000
-2.8865 IN LAREDO 0.0000
-2.5855 IN LAS 0.0000
-2.8865 IN LAYTON 0.0000
-2.8865 IN LEOMINSTER 0.0000
-2.8865 IN LEWISVILLE 0.0000
-2.8865 IN LEXINGTON 0.0000
-2.8865 IN LINCOLN 0.0000
-2.8865 IN LITTLE 0.0000
-2.8865 IN LONG 0.0000
-2.8865 IN LORAIN 0.0000
-2.8865 IN LOS 0.0000
-2.8865 IN LOUISVILLE 0.0000
-2.8865 IN LOWELL 0.0000
-2.8865 IN LUBBOCK 0.0000
-2.8865 IN MACON 0.0000
-2.8865 IN MADISON 0.0000
-2.8865 IN MANCHESTER 0.0000
-2.8865 IN MARINA 0.0000
-2.8865 IN MARYSVILLE 0.0000
-2.8865 IN MCALLEN 0.0000
-2.8865 IN MCHENRY 0.0000
-2.8865 IN MEDFORD 0.0000
-2.8865 IN MELBOURNE 0.0000
-2.8865 IN MEMPHIS 0.0000
-2.8865 IN MERCED 0.0000
-2.8865 IN MESA 0.0000
-2.8865 IN MESQUITE 0.0000
-2.8865 IN MIAMI 0.0000
-2.8865 IN MILWAUKEE 0.0000
-2.8865 IN MINNEAPOLIS 0.0000
-2.8865 IN MIRAMAR 0.0000
-2.8865 IN MISSION 0.0000
-2.8865 IN MOBILE 0.0000
-2.8865 IN MODESTO 0.0000
-2.8865 IN MONROE 0.0000
-2.8865 IN MONTEREY 0.0000
-2.8865 IN MONTGOMERY 0.0000
-2.8865 IN MORENO 0.0000
-2.8865 IN MURFREESBORO 0.0000
-2.8865 IN MURRIETA 0.0000
-2.8865 IN MUSKEGON 0.0000
-2.8865 IN MYRTLE 0.0000
-2.8865 IN NAPERVILLE 0.0000
-2.8865 IN NAPLES 0.0000
-2.8865 IN NASHUA 0.0000
-2.8865 IN NASHVILLE 0.0000
-2.1083 IN NEW 0.0000
-2.8865 IN NEWARK 0.0000
-2.8865 IN NEWBURGH 0.0000
-2.8865 IN NEWPORT 0.0000
-2.8865 IN NORFOLK 0.0000
-2.8865 IN NORMAL 0.0000
-2.8865 IN NORMAN 0.0000
-2.4094 IN NORTH 0.0000
-2.8865 IN NORWALK 0.0000
-2.8865 IN NORWICH 0.0000
-2.8865 IN OAKLAND 0.0000
-2.8865 IN OCALA 0.0000
-2.8865 IN OCEANSIDE 0.0000
-2.8865 IN ODESSA 0.0000
-2.8865 IN OGDEN 0.0000
-2.8865 IN OKLAHOMA 0.0000
-2.8865 IN OLATHE 0.0000
-2.8865 IN OLYMPIA 0.0000
-2.8865 IN OMAHA 0.0000
-2.8865 IN ONTARIO 0.0000
-2.8865 IN ORANGE 0.0000
-2.8865 IN OREM 0.0000
-2.8865 IN ORLANDO 0.0000
-2.8865 IN OVERLAND 0.0000
-2.8865 IN OXNARD 0.0000
-2.5855 IN PALM 0.0000
-2.8865 IN PALMDALE 0.0000
-2.8865 IN PANAMA 0.0000
-2.8865 IN PASADENA 0.0000
-2.8865 IN PATERSON 0.0000
-2.8865 IN PEMBROKE 0.0000
-2.8865 IN PENSACOLA 0.0000
-2.8865 IN PEORIA 0.0000
-2.8865 IN PHILADELPHIA 0.0000
-2.8865 IN PHOENIX 0.0000
-2.8865 IN PITTSBURGH 0.0000
-2.8865 IN PLANO 0.0000
-2.8865 IN POMONA 0.0000
-2.8865 IN POMPANO 0.0000
-2.2844 IN PORT -0.0792
-2.8865 IN PORTLAND 0.0000
-2.8865 IN PORTSMOUTH 0.0000
-2.8865 IN POUGHKEEPSIE 0.0000
-2.8865 IN PROVIDENCE 0.0000
-2.8865 IN PROVO 0.0000
-2.8865 IN PUEBLO 0.0000
-2.8865 IN PUNTA 0.0000
-2.8865 IN RACINE 0.0000
-2.8865 IN RALEIGH 0.0000
-2.8865 IN RANCHO 0.0000
-2.8865 IN READING 0.0000
-2.8865 IN REDDING 0.0000
-2.8865 IN RENO 0.0000
-2.8865 IN RICHLAND 0.0000
-2.5855 IN RICHMOND 0.0000
-2.8865 IN RIVERSIDE 0.0000
-2.8865 IN ROANOKE 0.0000
-2.8865 IN ROCHESTER 0.0000
-2.8865 IN ROCKFORD 0.0000
-2.8865 IN ROSEVILLE 0.0000
-2.8865 IN ROUND 0.0000
-2.8865 IN SACRAMENTO 0.0000
-2.8865 IN SAGINAW 0.0000
-2.4094 IN SAINT -0.0969
-2.8865 IN SALEM 0.0000
-2.8865 IN SALINAS 0.0000
-2.8865 IN SALT 0.0000
-2.1083 IN SAN 0.0000
-2.0414 IN SANTA -0.0000
-2.8865 IN SARASOTA 0.0000
-2.8865 IN SAVANNAH 0.0000
-2.8865 IN SCOTTSDALE 0.0000
-2.8865 IN SCRANTON 0.0000
-2.8865 IN SEASIDE 0.0000
-2.8865 IN SEATTLE 0.0000
-2.8865 IN SEBASTIAN 0.0000
-2.8865 IN SHREVEPORT 0.0000
-2.8865 IN SIMI 0.0000
-2.5855 IN SIOUX 0.0000
-2.5855 IN SOUTH 0.0000
-2.8865 IN SPARTANBURG 0.0000
-2.8865 IN SPOKANE 0.0000
-2.8865 IN SPRINGDALE 0.0000
-2.8865 IN SPRINGFIELD 0.0000
-2.4094 IN ST. -0.0969
-2.8865 IN STAMFORD 0.0000
-2.8865 IN STERLING 0.0000
-2.8865 IN STOCKTON 0.0000
-2.8865 IN SUNNYVALE 0.0000
-2.8865 IN SYRACUSE 0.0000
-2.8865 IN TACOMA 0.0000
-2.8865 IN TALLAHASSEE 0.0000
-2.8865 IN TAMPA 0.0000
-2.8865 IN TEMECULA 0.0000
-2.8865 IN TEMPE 0.0000
-2.8865 IN THORNTON 0.0000
-2.8865 IN THOUSAND 0.0000
-2.8865 IN TOLEDO 0.0000
-2.8865 IN TOPEKA 0.0000
-2.8865 IN TORRANCE 0.0000
-2.8865 IN TRENTON 0.0000
-2.8865 IN TUCSON 0.0000
-2.8865 IN TULSA 0.0000
-2.8865 IN TUSCALOOSA 0.0000
-2.8865 IN TYLER 0.0000
-2.8865 IN UTICA 0.0000
-2.8865 IN VALLEJO 0.0000
-2.8865 IN VANCOUVER 0.0000
-2.8865 IN VERO 0.0000
-2.8865 IN VICTORVILLE 0.0000
-2.8865 IN VIRGINIA 0.0000
-2.8865 IN VISALIA 0.0000
-2.8865 IN WACO 0.0000
-2.8865 IN WARREN 0.0000
-2.8865 IN WASHINGTON 0.0000
-2.8865 IN WASHINGTON.D.C 0.0000
-2.8865 IN WATERBURY 0.0000
-2.8865 IN WATERLOO 0.0000
-2.5855 IN WEST 0.0000
-2.8865 IN WESTMINSTER 0.0000
-2.8865 IN WICHITA 0.0000
-2.8865 IN WILMINGTON 0.0000
-2.8865 IN WINSTON 0.0000
-2.8865 IN WINTER 0.0000
-2.8865 IN WORCESTER 0.0000
-2.8865 IN YAKIMA 0.0000
-2.8865 IN YONKERS 0.0000
-2.8865 IN YORK -0.1249
-0.3010 INDEPENDENCE AT -0.0378
-0.3010 INDIANAPOLIS AT 0.0000
-0.3010 INGLEWOOD AT -0.0388
-0.3010 IRVINE AT 0.0000
-0.3010 IRVING AT 0.0000
-0.3010 JACKSON AT 0.0000
-0.3010 JACKSONVILLE AT -0.0382
-0.3010 JEFFERSON AT -0.0378
-0.3010 JERSEY CITY 0.0000
-0.3010 JOHNSON CITY 0.0000
-0.3010 JOLIET AT -0.0715
-0.3010 JOSE AT 0.0000
-0.3010 KAILUA AT -0.0388
-0.3010 KALAMAZOO AT -0.0729
-0.3010 KANEOHE AT 0.0000
-0.3010 KANSAS CITY 0.0000
-0.3010 KENNEWICK AT -0.0373
-0.3010 KENOSHA AT -0.0356
-0.3010 KILLEEN AT -0.0383
-0.3010 KISSIMMEE AT -0.0382
-0.3010 KNOXVILLE AT 0.0000
-0.3010 LACEY AT 0.0000
-0.3010 LAFAYETTE AT 0.0000
-0.7782 LAKE BEACH 0.0000
-0.7782 LAKE CHARLES 0.0000
-0.7782 LAKE CITY 0.0000
-0.3010 LAKELAND AT 0.0000
-0.3010 LAKEWOOD AT -0.0377
-0.3010 LANCASTER AT 0.0000
-0.3010 LANSING AT -0.0383
-0.3010 LAREDO AT -0.0378
-0.7782 LAS CRUCES 0.0000
-0.4771 LAS VEGAS 0.0000
-0.3010 LAUDERDALE AT 0.0000
-0.3010 LAYTON AT 0.0000
-2.8865 LEAVES ABERDEEN 0.0000
-2.8865 LEAVES ABILENE 0.0000
-2.8865 LEAVES AKRON 0.0000
-2.8865 LEAVES ALBANY 0.0000
-2.8865 LEAVES ALBUQUERQUE 0.0000
-2.8865 LEAVES ALEXANDRIA 0.0000
-2.8865 LEAVES ALLENTOWN 0.0000
-2.8865 LEAVES AMARILLO 0.0000
-2.8865 LEAVES ANAHEIM 0.0000
-2.8865 LEAVES ANCHORAGE 0.0000
-2.8865 LEAVES ANN 0.0000
-2.8865 LEAVES ANTIOCH 0.0000
-2.8865 LEAVES APPLE 0.0000
-2.8865 LEAVES APPLETON 0.0000
-2.8865 LEAVES ARLINGTON 0.0000
-2.8865 LEAVES ARVADA 0.0000
-2.8865 LEAVES ASHEVILLE 0.0000
-2.8865 LEAVES ATHENS 0.0000
-2.8865 LEAVES ATLANTA 0.0000
-2.8865 LEAVES ATLANTIC 0.0000
-2.8865 LEAVES AUGUSTA 0.0000
-2.8865 LEAVES AURORA 0.0000
-2.8865 LEAVES AUSTIN 0.0000
-2.8865 LEAVES BAKERSFIELD 0.0000
-2.8865 LEAVES BALTIMORE 0.0000
-2.8865 LEAVES BARNSTABLE 0.0000
-2.8865 LEAVES BATON 0.0000
-2.8865 LEAVES BEAUMONT 0.0000
-2.8865 LEAVES BEL 0.0000
-2.8865 LEAVES BELLEVUE 0.0000
-2.8865 LEAVES BERKELEY 0.0000
-2.8865 LEAVES BETHLEHEM 0.0000
-2.8865 LEAVES BILLINGS 0.0000
-2.8865 LEAVES BIRMINGHAM 0.0000
-2.8865 LEAVES BLOOMINGTON 0.0000
-2.5855 LEAVES BOISE 0.0000
-2.8865 LEAVES BONITA 0.0000
-2.8865 LEAVES BOSTON 0.0000
-2.8865 LEAVES BOULDER 0.0000
-2.8865 LEAVES BRADENTON 0.0000
-2.8865 LEAVES BREMERTON 0.0000
-2.8865 LEAVES BRIDGEPORT 0.0000
-2.8865 LEAVES BRIGHTON 0.0000
-2.8865 LEAVES BROWNSVILLE 0.0000
-2.8865 LEAVES BRYAN 0.0000
-2.8865 LEAVES BUFFALO 0.0000
-2.8865 LEAVES BURBANK 0.0000
-2.8865 LEAVES BURLINGTON 0.0000
-2.8865 LEAVES CAMBRIDGE 0.0000
-2.8865 LEAVES CANTON 0.0000
-2.8865 LEAVES CAPE 0.0000
-2.8865 LEAVES CARROLLTON 0.0000
-2.8865 LEAVES CARY 0.0000
-2.8865 LEAVES CATHEDRAL 0.0000
-2.8865 LEAVES CEDAR 0.0000
-2.8865 LEAVES CHAMPAIGN 0.0000
-2.8865 LEAVES CHANDLER 0.0000
-2.8865 LEAVES CHARLESTON 0.0000
-2.8865 LEAVES CHARLOTTE 0.0000
-2.8865 LEAVES CHATTANOOGA 0.0000
-2.8865 LEAVES CHESAPEAKE 0.0000
-2.8865 LEAVES CHICAGO 0.0000
-2.8865 LEAVES CHULA 0.0000
-2.8865 LEAVES CINCINNATI 0.0000
-2.8865 LEAVES CLARKE 0.0000
-2.8865 LEAVES CLARKSVILLE 0.0000
-2.8865 LEAVES CLEARWATER 0.0000
-2.8865 LEAVES CLEVELAND 0.0000
-2.8865 LEAVES COLLEGE 0.0000
-2.8865 LEAVES COLORADO 0.0000
-2.8865 LEAVES COLUMBIA 0.0000
-2.8865 LEAVES COLUMBUS 0.0000
-2.8865 LEAVES CONCORD 0.0000
-2.8865 LEAVES CORAL -0.1761
-2.8865 LEAVES CORONA 0.0000
-2.8865 LEAVES CORPUS 0.0000
-2.8865 LEAVES COSTA 0.0000
-2.8865 LEAVES DALLAS 0.0000
-2.8865 LEAVES DALY 0.0000
-2.8865 LEAVES DANBURY 0.0000
-2.8865 LEAVES DAVENPORT 0.0000
-2.8865 LEAVES DAVIDSON 0.0000
-2.8865 LEAVES DAYTON 0.0000
-2.8865 LEAVES DAYTONA 0.0000
-2.8865 LEAVES DELTONA 0.0000
-2.8865 LEAVES DENTON 0.0000
-2.8865 LEAVES DENVER 0.0000
-2.8865 LEAVES DES 0.0000
-2.8865 LEAVES DETROIT 0.0000
-2.8865 LEAVES DOWNEY 0.0000
-2.8865 LEAVES DULUTH 0.0000
-2.8865 LEAVES DURHAM 0.0000
-2.5855 LEAVES EL 0.0000
-2.8865 LEAVES ELIZABETH 0.0000
-2.8865 LEAVES ELK 0.0000
-2.8865 LEAVES ELKHART 0.0000
-2.8865 LEAVES ERIE 0.0000
-2.8865 LEAVES ESCONDIDO 0.0000
-2.8865 LEAVES EUGENE 0.0000
-2.8865 LEAVES EVANSVILLE 0.0000
-2.8865 LEAVES FAIRFIELD 0.0000
-2.8865 LEAVES FARGO 0.0000
-2.8865 LEAVES FAYETTEVILLE 0.0000
-2.8865 LEAVES FITCHBURG 0.0000
-2.8865 LEAVES FLINT 0.0000
-2.8865 LEAVES FONTANA 0.0000
-2.1083 LEAVES FORT 0.0000
-2.8865 LEAVES FREDERICK 0.0000
-2.8865 LEAVES FREMONT 0.0000
-2.8865 LEAVES FRESNO 0.0000
-2.8865 LEAVES FULLERTON 0.0000
-2.8865 LEAVES GAINESVILLE 0.0000
-2.8865 LEAVES GARDEN 0.0000
-2.8865 LEAVES GARLAND 0.0000
-2.8865 LEAVES GASTONIA 0.0000
-2.8865 LEAVES GILBERT 0.0000
-2.8865 LEAVES GLENDALE 0.0000
-2.5855 LEAVES GRAND 0.0000
-2.8865 LEAVES GRAYSLAKE 0.0000
-2.8865 LEAVES GREEN 0.0000
-2.8865 LEAVES GREENBAY 0.0000
-2.8865 LEAVES GREENSBORO 0.0000
-2.8865 LEAVES GREENVILLE 0.0000
-2.8865 LEAVES GULFPORT-BILOXI 0.0000
-2.8865 LEAVES HAGERSTOWN 0.0000
-2.8865 LEAVES HAMPTON 0.0000
-2.8865 LEAVES HARLINGEN 0.0000
-2.8865 LEAVES HARRISBURG 0.0000
-2.8865 LEAVES HARTFORD 0.0000
-2.8865 LEAVES HAVRE 0.0000
-2.8865 LEAVES HAYWARD 0.0000
-2.8865 LEAVES HEMET 0.0000
-2.8865 LEAVES HENDERSON 0.0000
-2.8865 LEAVES HESPERIA 0.0000
-2.8865 LEAVES HIALEAH 0.0000
-2.8865 LEAVES HICKORY 0.0000
-2.8865 LEAVES HIGH 0.0000
-2.8865 LEAVES HOLLYWOOD 0.0000
-2.8865 LEAVES HONOLULU 0.0000
-2.8865 LEAVES HOUMA 0.0000
-2.8865 LEAVES HOUSTON 0.0000
-2.8865 LEAVES HOWELL 0.0000
-2.5855 LEAVES HUNTINGTON 0.0000
-2.8865 LEAVES HUNTSVILLE 0.0000
-2.8865 LEAVES INDEPENDENCE 0.0000
-2.8865 LEAVES INDIANAPOLIS 0.0000
-2.8865 LEAVES INGLEWOOD 0.0000
-2.8865 LEAVES IRVINE 0.0000
-2.8865 LEAVES IRVING 0.0000
-2.8865 LEAVES JACKSON 0.0000
-2.8865 LEAVES JACKSONVILLE 0.0000
-2.8865 LEAVES JEFFERSON 0.0000
-2.8865 LEAVES JERSEY 0.0000
-2.8865 LEAVES JOHNSON 0.0000
-2.8865 LEAVES JOLIET 0.0000
-2.8865 LEAVES KAILUA 0.0000
-2.8865 LEAVES KALAMAZOO 0.0000
-2.8865 LEAVES KANEOHE 0.0000
-2.8865 LEAVES KANSAS 0.0000
-2.8865 LEAVES KENNEWICK 0.0000
-2.8865 LEAVES KENOSHA 0.0000
-2.8865 LEAVES KILLEEN 0.0000
-2.8865 LEAVES KISSIMMEE 0.0000
-2.8865 LEAVES KNOXVILLE 0.0000
-2.8865 LEAVES LACEY 0.0000
-2.8865 LEAVES LAFAYETTE 0.0000
-2.8865 LEAVES LAKE -0.2218
-2.8865 LEAVES LAKELAND 0.0000
-2.8865 LEAVES LAKEWOOD 0.0000
-2.8865 LEAVES LANCASTER 0.0000
-2.8865 LEAVES LANSING 0.0000
-2.8865 LEAVES LAREDO 0.0000
-2.5855 LEAVES LAS 0.0000
-2.8865 LEAVES LAYTON 0.0000
-2.8865 LEAVES LEOMINSTER 0.0000
-2.8865 LEAVES LEWISVILLE 0.0000
-2.8865 LEAVES LEXINGTON 0.0000
-2.8865 LEAVES LINCOLN 0.0000
-2.8865 LEAVES LITTLE 0.0000
-2.8865 LEAVES LONG 0.0000
-2.8865 LEAVES LORAIN 0.0000
-2.8865 LEAVES LOS 0.0000
-2.8865 LEAVES LOUISVILLE 0.0000
-2.8865 LEAVES LOWELL 0.0000
-2.8865 LEAVES LUBBOCK 0.0000
-2.8865 LEAVES MACON 0.0000
-2.8865 LEAVES MADISON 0.0000
-2.8865 LEAVES MANCHESTER 0.0000
-2.8865 LEAVES MARINA 0.0000
-2.8865 LEAVES MARYSVILLE 0.0000
-2.8865 LEAVES MCALLEN 0.0000
-2.8865 LEAVES MCHENRY 0.0000
-2.8865 LEAVES MEDFORD 0.0000
-2.8865 LEAVES MELBOURNE 0.0000
-2.8865 LEAVES MEMPHIS 0.0000
-2.8865 LEAVES MERCED 0.0000
-2.8865 LEAVES MESA 0.0000
-2.8865 LEAVES MESQUITE 0.0000
-2.8865 LEAVES MIAMI 0.0000
-2.8865 LEAVES MILWAUKEE 0.0000
-2.8865 LEAVES MINNEAPOLIS 0.0000
-2.8865 LEAVES MIRAMAR 0.0000
-2.8865 LEAVES MISSION 0.0000
-2.8865 LEAVES MOBILE 0.0000
-2.8865 LEAVES MODESTO 0.0000
-2.8865 LEAVES MONROE 0.0000
-2.8865 LEAVES MONTEREY 0.0000
-2.8865 LEAVES MONTGOMERY 0.0000
-2.8865 LEAVES MORENO 0.0000
-2.8865 LEAVES MURFREESBORO 0.0000
-2.8865 LEAVES MURRIETA 0.0000
-2.8865 LEAVES MUSKEGON 0.0000
-2.8865 LEAVES MYRTLE 0.0000
-2.8865 LEAVES NAPERVILLE 0.0000
-2.8865 LEAVES NAPLES 0.0000
-2.8865 LEAVES NASHUA 0.0000
-2.8865 LEAVES NASHVILLE 0.0000
-2.1083 LEAVES NEW 0.0000
-2.8865 LEAVES NEWARK 0.0000
-2.8865 LEAVES NEWBURGH 0.0000
-2.8865 LEAVES NEWPORT 0.0000
-2.8865 LEAVES NORFOLK 0.0000
-2.8865 LEAVES NORMAL 0.0000
-2.8865 LEAVES NORMAN 0.0000
-2.4094 LEAVES NORTH 0.0000
-2.8865 LEAVES NORWALK 0.0000
-2.8865 LEAVES NORWICH 0.0000
-2.8865 LEAVES OAKLAND 0.0000
-2.8865 LEAVES OCALA 0.0000
-2.8865 LEAVES OCEANSIDE 0.0000
-2.8865 LEAVES ODESSA 0.0000
-2.8865 LEAVES OGDEN 0.0000
-2.8865 LEAVES OKLAHOMA 0.0000
-2.8865 LEAVES OLATHE 0.0000
-2.8865 LEAVES OLYMPIA 0.0000
-2.8865 LEAVES OMAHA 0.0000
-2.8865 LEAVES ONTARIO 0.0000
-2.8865 LEAVES ORANGE 0.0000
-2.8865 LEAVES OREM 0.0000
-2.8865 LEAVES ORLANDO 0.0000
-2.8865 LEAVES OVERLAND 0.0000
-2.8865 LEAVES OXNARD 0.0000
-2.5855 LEAVES PALM 0.0000
-2.8865 LEAVES PALMDALE 0.0000
-2.8865 LEAVES PANAMA 0.0000
-2.8865 LEAVES PASADENA 0.0000
-2.8865 LEAVES PATERSON 0.0000
-2.8865 LEAVES PEMBROKE 0.0000
-2.8865 LEAVES PENSACOLA 0.0000
-2.8865 LEAVES PEORIA 0.0000
-2.8865 LEAVES PHILADELPHIA 0.0000
-2.8865 LEAVES PHOENIX 0.0000
-2.8865 LEAVES PITTSBURGH 0.0000
-2.8865 LEAVES PLANO 0.0000
-2.8865 LEAVES POMONA 0.0000
-2.8865 LEAVES POMPANO 0.0000
-2.2844 LEAVES PORT -0.0792
-2.8865 LEAVES PORTLAND 0.0000
-2.8865 LEAVES PORTSMOUTH 0.0000
-2.8865 LEAVES POUGHKEEPSIE 0.0000
-2.8865 LEAVES PROVIDENCE 0.0000
-2.8865 LEAVES PROVO 0.0000
-2.8865 LEAVES PUEBLO 0.0000
-2.8865 LEAVES PUNTA 0.0000
-2.8865 LEAVES RACINE 0.0000
-2.8865 LEAVES RALEIGH 0.0000
-2.8865 LEAVES RANCHO 0.0000
-2.8865 LEAVES READING 0.0000
-2.8865 LEAVES REDDING 0.0000
-2.8865 LEAVES RENO 0.0000
-2.8865 LEAVES RICHLAND 0.0000
-2.5855 LEAVES RICHMOND 0.0000
-2.8865 LEAVES RIVERSIDE 0.0000
-2.8865 LEAVES ROANOKE 0.0000
-2.8865 LEAVES ROCHESTER 0.0000
-2.8865 LEAVES ROCKFORD 0.0000
-2.8865 LEAVES ROSEVILLE 0.0000
-2.8865 LEAVES ROUND 0.0000
-2.8865 LEAVES SACRAMENTO 0.0000
-2.8865 LEAVES SAGINAW 0.0000
-2.4094 LEAVES SAINT -0.0969
-2.8865 LEAVES SALEM 0.0000
-2.8865 LEAVES SALINAS 0.0000
-2.8865 LEAVES SALT 0.0000
-2.1083 LEAVES SAN 0.0000
-2.0414 LEAVES SANTA -0.0000
-2.8865 LEAVES SARASOTA 0.0000
-2.8865 LEAVES SAVANNAH 0.0000
-2.8865 LEAVES SCOTTSDALE 0.0000
-2.8865 LEAVES SCRANTON 0.0000
-2.8865 LEAVES SEASIDE 0.0000
-2.8865 LEAVES SEATTLE 0.0000
-2.8865 LEAVES SEBASTIAN 0.0000
-2.8865 LEAVES SHREVEPORT 0.0000
-2.8865 LEAVES SIMI 0.0000
-2.5855 LEAVES SIOUX 0.0000
-2.5855 LEAVES SOUTH 0.0000
-2.8865 LEAVES SPARTANBURG 0.0000
-2.8865 LEAVES SPOKANE 0.0000
-2.8865 LEAVES SPRINGDALE 0.0000
-2.8865 LEAVES SPRINGFIELD 0.0000
-2.4094 LEAVES ST. -0.0969
-2.8865 LEAVES STAMFORD 0.0000
-2.8865 LEAVES STERLING 0.0000
-2.8865 LEAVES STOCKTON 0.0000
-2.8865 LEAVES SUNNYVALE 0.0000
-2.8865 LEAVES SYRACUSE 0.0000
-2.8865 LEAVES TACOMA 0.0000
-2.8865 LEAVES TALLAHASSEE 0.0000
-2.8865 LEAVES TAMPA 0.0000
-2.8865 LEAVES TEMECULA 0.0000
-2.8865 LEAVES TEMPE 0.0000
-2.8865 LEAVES THORNTON 0.0000
-2.8865 LEAVES THOUSAND 0.0000
-2.8865 LEAVES TOLEDO 0.0000
-2.8865 LEAVES TOPEKA 0.0000
-2.8865 LEAVES TORRANCE 0.0000
-2.8865 LEAVES TRENTON 0.0000
-2.8865 LEAVES TUCSON 0.0000
-2.8865 LEAVES TULSA 0.0000
-2.8865 LEAVES TUSCALOOSA 0.0000
-2.8865 LEAVES TYLER 0.0000
-2.8865 LEAVES UTICA 0.0000
-2.8865 LEAVES VALLEJO 0.0000
-2.8865 LEAVES VANCOUVER 0.0000
-2.8865 LEAVES VERO 0.0000
-2.8865 LEAVES VICTORVILLE 0.0000
-2.8865 LEAVES VIRGINIA 0.0000
-2.8865 LEAVES VISALIA 0.0000
-2.8865 LEAVES WACO 0.0000
-2.8865 LEAVES WARREN 0.0000
-2.8865 LEAVES WASHINGTON 0.0000
-2.8865 LEAVES WASHINGTON.D.C 0.0000
-2.8865 LEAVES WATERBURY 0.0000
-2.8865 LEAVES WATERLOO 0.0000
-2.5855 LEAVES WEST 0.0000
-2.8865 LEAVES WESTMINSTER 0.0000
-2.8865 LEAVES WICHITA 0.0000
-2.8865 LEAVES WILMINGTON 0.0000
-2.8865 LEAVES WINSTON 0.0000
-2.8865 LEAVES WINTER 0.0000
-2.8865 LEAVES WORCESTER 0.0000
-2.8865 LEAVES YAKIMA 0.0000
-2.8865 LEAVES YONKERS 0.0000
-2.8865 LEAVES YORK -0.1249
-0.3010 LEOMINSTER AT -0.0388
-0.3010 LEWISVILLE AT -0.0388
-0.3010 LEXINGTON AT 0.0000
-0.3010 LINCOLN AT -0.0735
-0.3010 LITTLE ROCK 0.0000
-0.3010 LONDON AT -0.0377
-0.3010 LONG BEACH 0.0000
-0.3010 LORAIN AT -0.0382
-0.3010 LOS ANGELES 0.0000
-0.3010 LOUIS AT 0.0000
-0.3010 LOUISVILLE AT 0.0000
-0.3010 LOWELL AT 0.0000
-0.3010 LUBBOCK AT 0.0000
-0.3010 LUCIE AT 0.0000
-0.3010 LYON AT 0.0000
-0.3010 MACON AT 0.0000
-0.3010 MADISON AT -0.0715
-0.3010 MANCHESTER AT 0.0000
-0.3010 MARIA AT -0.0388
-0.3010 MARINA AT 0.0000
-0.3010 MARYSVILLE AT -0.0381
-0.3010 MCALLEN AT -0.0711
-0.3010 MCHENRY AT 0.0000
-0.3010 MEDFORD AT 0.0000
-0.3010 MELBOURNE AT -0.0744
-0.3010 MEMPHIS AT 0.0000
-0.3010 MERCED AT -0.0356
-0.3010 MESA AT -0.0379
-0.3010 MESQUITE AT 0.0000
-0.3010 MIAMI AT -0.0381
-0.3010 MILWAUKEE AT 0.0000
-0.3010 MINNEAPOLIS AT 0.0000
-0.3010 MIRAMAR AT -0.0734
-0.3010 MISSION VIEJO 0.0000
-0.3010 MOBILE AT 0.0000
-0.3010 MODESTO AT 0.0000
-0.3010 MOINES AT 0.0000
-0.3010 MONROE AT 0.0000
-0.3010 MONTE AT 0.0000
-0.3010 MONTEREY AT 0.0000
-0.3010 MONTGOMERY AT -0.0383
-0.3010 MORENO VALLEY -0.0969
-0.3010 MURFREESBORO AT -0.0388
-0.3010 MURRIETA AT -0.0373
-0.3010 MUSKEGON AT 0.0000
-0.3010 MYRTLE BEACH 0.0000
-0.3010 NAPERVILLE AT -0.0373
-0.3010 NAPLES AT -0.0356
-0.3010 NASHUA AT 0.0000
-0.3010 NASHVILLE AT -0.0379
-1.0792 NEW BEDFORD 0.0000
-1.0792 NEW HAVEN 0.0000
-1.0792 NEW LONDON 0.0000
-1.0792 NEW ORLEANS 0.0000
-0.7782 NEW YORK 0.0000
-0.3010 NEWARK AT -0.0371
-0.3010 NEWBURGH AT 0.0000
-0.3010 NEWPORT NEWS 0.0000
-0.3010 NEWS AT 0.0000
-0.7766 NINE </s> -0.3010
-1.1082 NINE ARRIVES -0.1025
-2.4610 NINE EIGHT -0.2068
-2.4362 NINE EIGHTEEN -0.2443
-2.4610 NINE ELEVEN -0.2757
-2.4362 NINE FIFTEEN -0.2471
-1.4900 NINE FIFTY 0.0000
-2.3904 NINE FIVE -0.2093
-1.4713 NINE FORTY 0.0000
-2.5775 NINE FOUR -0.2079
-2.4610 NINE FOURTEEN -0.2406
-1.4196 NINE LEAVES -0.1949
-2.3297 NINE NINE -0.2215
-2.3490 NINE NINETEEN -0.2466
-3.6914 NINE OH -0.2218
-2.3692 NINE ONE -0.2099
-2.3692 NINE SEVEN -0.2100
-2.6914 NINE SEVENTEEN -0.2441
-2.3297 NINE SIX -0.2122
-2.3692 NINE SIXTEEN -0.2457
-2.3490 NINE TEN -0.2758
-2.4610 NINE THIRTEEN -0.2390
-1.4243 NINE THIRTY 0.0000
-2.6914 NINE THREE -0.2125
-2.2935 NINE TWELVE -0.2349
-1.3992 NINE TWENTY -0.0836
-2.3297 NINE TWO -0.2113
-0.9291 NINETEEN </s> -0.3010
-0.5981 NINETEEN ARRIVES -0.0989
-0.8860 NINETEEN LEAVES -0.1735
-0.3010 NORFOLK AT -0.1045
-0.3010 NORMAL AT -0.0388
-0.3010 NORMAN AT -0.0377
-0.7782 NORTH CHARLESTON 0.0000
-0.7782 NORTH LAS -0.1249
-0.7782 NORTH PORT -0.2553
-0.3010 NORWALK AT -0.0379
-0.3010 NORWICH AT 0.0000
-0.3010 OAKLAND AT -0.1060
-0.3010 OAKS AT 0.0000
-0.3010 OCALA AT 0.0000
-0.3010 OCEANSIDE AT 0.0000
-0.3010 ODESSA AT 0.0000
-0.3010 OGDEN AT -0.0382
-0.7782 OH FOUR -0.2079
-0.4771 OH SEVEN -0.2100
-0.3010 OKLAHOMA CITY 0.0000
-0.3010 OLATHE AT 0.0000
-0.3010 OLYMPIA AT -0.0736
-0.3010 OMAHA AT -0.0379
-0.7228 ONE </s> -0.3010
-1.1238 ONE ARRIVES -0.0998
-2.5454 ONE EIGHT -0.2068
-2.4910 ONE EIGHTEEN -0.2443
-2.4910 ONE ELEVEN -0.2757
-2.4205 ONE FIFTEEN -0.2471
-1.4567 ONE FIFTY 0.0000
-2.4662 ONE FIVE -0.2093
-1.4988 ONE FORTY 0.0000
-2.4910 ONE FOUR -0.2079
-2.4910 ONE FOURTEEN -0.2406
-1.4520 ONE LEAVES -0.1977
-2.5754 ONE NINE -0.2215
-2.3598 ONE NINETEEN -0.2466
-2.3598 ONE ONE -0.2099
-2.4427 ONE SEVEN -0.2100
-2.3993 ONE SEVENTEEN -0.2441
-2.4910 ONE SIX -0.2122
-2.3598 ONE SIXTEEN -0.2457
-2.3993 ONE TEN -0.2758
-2.5454 ONE THIRTEEN -0.2390
-1.4809 ONE THIRTY 0.0000
-2.7672 ONE THREE -0.2125
-2.3598 ONE TWELVE -0.2349
-1.4590 ONE TWENTY -0.0836
-2.4910 ONE TWO -0.2113
-0.3010 ONTARIO AT 0.0000
-0.3010 ORANGE AT 0.0000
-0.3010 OREM AT -0.0381
-0.3010 ORLANDO AT -0.0378
-0.3010 ORLEANS AT 0.0000
-0.3010 OVERLAND PARK 0.0000
-0.3010 OXNARD AT -0.0383
-0.6021 PALM BAY 0.0000
-0.6021 PALM SPRINGS 0.0000
-0.3010 PALMDALE AT -0.0382
-0.3010 PANAMA CITY 0.0000
-0.3010 PARK AT -0.0373
-0.3010 PASADENA AT -0.0724
-0.3010 PASO AT 0.0000
-0.3010 PATERSON AT 0.0000
-0.3010 PAUL AT 0.0000
-0.3010 PEMBROKE PINES 0.0000
-0.3010 PENSACOLA AT -0.0373
-0.3010 PEORIA AT 0.0000
-0.3010 PETERSBURG AT 0.0000
-0.3010 PHILADELPHIA AT -0.0377
-0.3010 PHOENIX AT 0.0000
-0.3010 PINES AT -0.0377
-0.3010 PITTSBURGH AT 0.0000
-0.3010 PLANO AT 0.0000
-0.3010 POINT AT -0.0378
-0.3010 POMONA AT 0.0000
-0.3010 POMPANO BEACH 0.0000
-1.0000 PORT ARTHUR 0.0000
-1.0000 PORT AT -0.0388
-1.0000 PORT ORANGE 0.0000
-1.0000 PORT SAINT -0.2430
-1.0000 PORT ST. -0.2430
-0.3010 PORTLAND AT -0.0377
-0.3010 PORTSMOUTH AT -0.0377
-0.3010 POUGHKEEPSIE AT -0.0356
-0.3010 PRAIRIE AT -0.0721
-0.3010 PROVIDENCE AT -0.0379
-0.3010 PROVO AT -0.0383
-0.3010 PUEBLO AT 0.0000
-0.3010 PUNTA GORDA 0.0000
-0.3010 RACINE AT 0.0000
-0.3010 RALEIGH AT 0.0000
-0.3010 RANCHO CUCAMONGA 0.0000
-0.3010 RAPIDS AT 0.0000
-0.3010 READING AT -0.0382
-0.3010 REDDING AT 0.0000
-0.3010 RENO AT 0.0000
-0.3010 RICHLAND AT 0.0000
-0.6021 RICHMOND AT -0.0388
-0.6021 RICHMOND COUNTY 0.0000
-0.3010 RIVERSIDE AT -0.0379
-0.3010 ROANOKE AT -0.0388
-0.3010 ROCHESTER AT -0.0381
-0.3010 ROCK AT -0.0388
-0.3010 ROCKFORD AT -0.0711
-0.3010 ROSA AT 0.0000
-0.3010 ROSEVILLE AT -0.0382
-0.3010 ROUGE AT -0.0382
-0.3010 ROUND LAKE -0.2218
-0.3010 SACRAMENTO AT 0.0000
-0.3010 SAGINAW AT -0.0382
-0.9031 SAINT LOUIS 0.0000
-0.9031 SAINT LUCIE 0.0000
-0.9031 SAINT PAUL 0.0000
-0.9031 SAINT PETERSBURG 0.0000
-0.3010 SALEM AT -0.0356
-0.3010 SALINAS AT -0.0388
-0.3010 SALT LAKE -0.2218
-1.0792 SAN ANTONIO 0.0000
-1.0792 SAN BERNARDINO 0.0000
-1.0792 SAN BUENAVENTURA 0.0000
-1.0792 SAN DIEGO 0.0000
-1.0792 SAN FRANCISCO 0.0000
-1.0792 SAN JOSE 0.0000
-1.1461 SANTA ANA 0.0000
-1.1461 SANTA BARBARA 0.0000
-1.1461 SANTA CLARA 0.0000
-1.1461 SANTA CLARITA 0.0000
-1.1461 SANTA CRUZ 0.0000
-1.1461 SANTA MARIA 0.0000
-1.1461 SANTA ROSA 0.0000
-0.3010 SARASOTA AT -0.0377
-0.3010 SAVANNAH AT -0.0710
-0.3010 SCOTTSDALE AT 0.0000
-0.3010 SCRANTON AT -0.0388
-0.3010 SEASIDE AT 0.0000
-0.3010 SEATTLE AT -0.0378
-0.3010 SEBASTIAN AT 0.0000
-0.7235 SEVEN </s> -0.3010
-1.1605 SEVEN ARRIVES -0.1025
-2.6778 SEVEN EIGHT -0.2068
-2.5431 SEVEN EIGHTEEN -0.2443
-2.4887 SEVEN ELEVEN -0.2757
-2.6052 SEVEN FIFTEEN -0.2471
-1.4687 SEVEN FIFTY 0.0000
-2.3767 SEVEN FIVE -0.2093
-1.4497 SEVEN FORTY 0.0000
-2.5730 SEVEN FOUR -0.2079
-2.4639 SEVEN FOURTEEN -0.2406
-1.4473 SEVEN LEAVES -0.1854
-2.3574 SEVEN NINE -0.2215
-2.6778 SEVEN NINETEEN -0.2466
-2.4181 SEVEN ONE -0.2099
-2.3969 SEVEN SEVEN -0.2100
-2.5730 SEVEN SEVENTEEN -0.2441
-2.6400 SEVEN SIX -0.2122
-2.4887 SEVEN SIXTEEN -0.2457
-2.4181 SEVEN TEN -0.2758
-2.4639 SEVEN THIRTEEN -0.2390
-1.4336 SEVEN THIRTY 0.0000
-2.3969 SEVEN THREE -0.2125
-2.3574 SEVEN TWELVE -0.2349
-1.4225 SEVEN TWENTY -0.0836
-2.5431 SEVEN TWO -0.2113
-0.9107 SEVENTEEN </s> -0.3010
-0.6003 SEVENTEEN ARRIVES -0.1038
-0.8990 SEVENTEEN LEAVES -0.1854
-0.3010 SHREVEPORT AT 0.0000
-0.3010 SIMI VALLEY -0.0969
-0.6021 SIOUX CITY 0.0000
-0.6021 SIOUX FALLS 0.0000
-0.7329 SIX </s> -0.3010
-1.1231 SIX ARRIVES -0.1016
-2.3974 SIX EIGHT -0.2068
-2.3772 SIX EIGHTEEN -0.2443
-2.5436 SIX ELEVEN -0.2757
-2.8746 SIX FIFTEEN -0.2471
-1.5265 SIX FIFTY 0.0000
-2.3047 SIX FIVE -0.2093
-1.4455 SIX FORTY 0.0000
-2.5735 SIX FOUR -0.2079
-2.4644 SIX FOURTEEN -0.2406
-1.4296 SIX LEAVES -0.1802
-2.5155 SIX NINE -0.2215
-2.6057 SIX NINETEEN -0.2466
-2.7197 SIX ONE -0.2099
-2.4644 SIX SEVEN -0.2100
-2.3047 SIX SEVENTEEN -0.2441
-2.3217 SIX SIX -0.2122
-2.4892 SIX SIXTEEN -0.2457
-2.5436 SIX TEN -0.2758
-2.4644 SIX THIRTEEN -0.2390
-1.4455 SIX THIRTY 0.0000
-2.2573 SIX THREE -0.2125
-2.4409 SIX TWELVE -0.2349
-1.4432 SIX TWENTY -0.0836
-2.6405 SIX TWO -0.2113
-0.9222 SIXTEEN </s> -0.3010
-0.6005 SIXTEEN ARRIVES -0.1012
-0.8878 SIXTEEN LEAVES -0.1780
-0.3010 SMITH AT 0.0000
-0.6021 SOUTH BEND 0.0000
-0.6021 SOUTH LYON 0.0000
-0.3010 SPARTANBURG AT -0.0702
-0.3010 SPOKANE AT 0.0000
-0.3010 SPRINGDALE AT 0.0000
-0.3010 SPRINGFIELD AT -0.0388
-0.3010 SPRINGS AT 0.0000
-0.9031 ST. LOUIS 0.0000
-0.9031 ST. LUCIE 0.0000
-0.9031 ST. PAUL 0.0000
-0.9031 ST. PETERSBURG 0.0000
-0.3010 STAMFORD AT -0.0378
-0.3010 STATION AT 0.0000
-0.3010 STERLING HEIGHTS 0.0000
-0.3010 STOCKTON AT 0.0000
-0.3010 SUNNYVALE AT -0.0388
-0.3010 SYRACUSE AT -0.0728
-0.3010 TACOMA AT 0.0000
-0.3010 TALLAHASSEE AT -0.0736
-0.3010 TAMPA AT -0.0377
-0.3010 TEMECULA AT 0.0000
-0.3010 TEMPE AT -0.0378
-1.2484 TEN </s> -0.3010
-0.9651 TEN ARRIVES -0.1043
-2.4307 TEN EIGHT -0.2068
-2.4007 TEN EIGHTEEN -0.2443
-2.3215 TEN ELEVEN -0.2757
-2.4307 TEN FIFTEEN -0.2471
-1.4007 TEN FIFTY 0.0000
-2.2758 TEN FIVE -0.2093
-1.3313 TEN FORTY 0.0000
-2.3215 TEN FOUR -0.2079
-2.2546 TEN FOURTEEN -0.2406
-1.3050 TEN LEAVES -0.1891
-2.3727 TEN NINE -0.2215
-2.6737 TEN NINETEEN -0.2466
-2.3464 TEN ONE -0.2099
-2.1789 TEN SEVEN -0.2100
-2.2758 TEN SEVENTEEN -0.2441
-2.2344 TEN SIX -0.2122
-2.2344 TEN SIXTEEN -0.2457
-2.3215 TEN TEN -0.2758
-2.3727 TEN THIRTEEN -0.2390
-1.2546 TEN THIRTY -0.0000
-2.2546 TEN THREE -0.2125
-2.2546 TEN TWELVE -0.2349
-1.2736 TEN TWENTY -0.0836
-2.4007 TEN TWO -0.2113
-0.8760 THIRTEEN </s> -0.3010
-0.6134 THIRTEEN ARRIVES -0.1135
-0.9087 THIRTEEN LEAVES -0.1891
-1.2551 THIRTY </s> -0.3010
-1.3004 THIRTY EIGHT -0.2068
-1.2881 THIRTY FIVE -0.2093
-1.3328 THIRTY FOUR -0.2079
-1.2983 THIRTY NINE -0.2215
-1.2664 THIRTY ONE -0.2099
-1.3195 THIRTY SEVEN -0.2100
-1.3152 THIRTY SIX -0.2122
-1.3350 THIRTY THREE -0.2125
-1.3067 THIRTY TWO -0.2113
-0.3010 THORNTON AT -0.0388
-0.3010 THOUSAND OAKS 0.0000
-0.7343 THREE </s> -0.3010
-1.1186 THREE ARRIVES -0.1034
-2.3150 THREE EIGHT -0.2068
-2.3908 THREE EIGHTEEN -0.2443
-2.5089 THREE ELEVEN -0.2757
-2.5089 THREE FIFTEEN -0.2471
-1.5859 THREE FIFTY 0.0000
-2.4825 THREE FIVE -0.2093
-1.4699 THREE FORTY 0.0000
-2.3328 THREE FOUR -0.2079
-2.3908 THREE FOURTEEN -0.2406
-1.4365 THREE LEAVES -0.1861
-2.2980 THREE NINE -0.2215
-2.5669 THREE NINETEEN -0.2466
-2.3513 THREE ONE -0.2099
-2.2816 THREE SEVEN -0.2100
-2.6338 THREE SEVENTEEN -0.2441
-2.5669 THREE SIX -0.2122
-2.8099 THREE SIXTEEN -0.2457
-2.3908 THREE TEN -0.2758
-2.2359 THREE THIRTEEN -0.2390
-1.4411 THREE THIRTY 0.0000
-2.2980 THREE THREE -0.2125
-2.3513 THREE TWELVE -0.2349
-1.4825 THREE TWENTY -0.0836
-2.4577 THREE TWO -0.2113
-0.3010 TOLEDO AT 0.0000
-0.3010 TOPEKA AT -0.0382
-0.3010 TORRANCE AT -0.0732
-1.6055 TRAIN EIGHT -0.2509
-1.5670 TRAIN EIGHTEEN -0.0951
-1.6217 TRAIN ELEVEN -0.2259
-1.6047 TRAIN FIFTEEN -0.0912
-1.5987 TRAIN FIVE -0.2498
-1.6146 TRAIN FOUR -0.2522
-1.5994 TRAIN FOURTEEN -0.1003
-1.6077 TRAIN NINE -0.2475
-1.5920 TRAIN NINETEEN -0.0918
-1.5987 TRAIN ONE -0.2502
-1.6240 TRAIN SEVEN -0.2529
-1.6139 TRAIN SEVENTEEN -0.0954
-1.5928 TRAIN SIX -0.2492
-1.5733 TRAIN SIXTEEN -0.0931
-1.5884 TRAIN TEN -0.2264
-1.6070 TRAIN THIRTEEN -0.1025
-1.5987 TRAIN THREE -0.2491
-1.6070 TRAIN TWELVE -0.1081
-1.6328 TRAIN TWENTY -0.2523
-1.5987 TRAIN TWO -0.2496
-0.3010 TRENTON AT 0.0000
-0.3010 TUCSON AT 0.0000
-0.3010 TULSA AT -0.0388
-0.3010 TUSCALOOSA AT 0.0000
-0.8498 TWELVE </s> -0.3010
-0.6165 TWELVE ARRIVES -0.0985
-0.9324 TWELVE LEAVES -0.1876
-1.3913 TWENTY </s> -0.3010
-1.1562 TWENTY ARRIVES -0.1122
-1.3727 TWENTY EIGHT -0.2068
-1.4722 TWENTY FIVE -0.2093
-1.4151 TWENTY FOUR -0.2079
-1.4404 TWENTY LEAVES -0.1891
-1.3830 TWENTY NINE -0.2215
-1.3955 TWENTY ONE -0.2099
-1.3913 TWENTY SEVEN -0.2100
-1.4174 TWENTY SIX -0.2122
-1.4219 TWENTY THREE -0.2125
-1.3934 TWENTY TWO -0.2113
-0.7290 TWO </s> -0.3010
-1.1450 TWO ARRIVES -0.1043
-2.4379 TWO EIGHT -0.2068
-2.3017 TWO EIGHTEEN -0.2443
-2.5126 TWO ELEVEN -0.2757
-2.7167 TWO FIFTEEN -0.2471
-1.5208 TWO FIFTY 0.0000
-2.5126 TWO FIVE -0.2093
-1.4862 TWO FORTY 0.0000
-2.4379 TWO FOUR -0.2079
-2.3742 TWO FOURTEEN -0.2406
-1.3965 TWO LEAVES -0.1802
-2.3742 TWO NINE -0.2215
-2.4156 TWO NINETEEN -0.2466
-3.7167 TWO OH -0.1249
-2.5126 TWO ONE -0.2099
-2.4614 TWO SEVEN -0.2100
-2.3945 TWO SEVENTEEN -0.2441
-2.4379 TWO SIX -0.2122
-2.4862 TWO SIXTEEN -0.2457
-2.5406 TWO TEN -0.2758
-2.5406 TWO THIRTEEN -0.2390
-1.4200 TWO THIRTY 0.0000
-2.6375 TWO THREE -0.2125
-2.4862 TWO TWELVE -0.2349
-1.4425 TWO TWENTY -0.0836
-2.5126 TWO TWO -0.2113
-0.3010 TYLER AT 0.0000
-0.3010 UTICA AT -0.1022
-0.3010 VALLEJO AT -0.0356
-0.4260 VALLEY AT 0.0000
-0.9031 VALLEY CITY 0.0000
-0.3010 VANCOUVER AT -0.0356
-0.3010 VEGAS AT 0.0000
-0.3010 VERO BEACH 0.0000
-0.3010 VICTORVILLE AT 0.0000
-0.3010 VIEJO AT -0.0702
-0.3010 VIRGINIA BEACH 0.0000
-0.3010 VISALIA AT -0.0382
-0.3010 VISTA AT -0.0371
-0.3010 WACO AT -0.0382
-0.3010 WALTON BEACH 0.0000
-0.3010 WARREN AT 0.0000
-0.3010 WASHINGTON AT 0.0000
-0.3010 WASHINGTON.D.C AT 0.0000
-0.3010 WATERBURY AT 0.0000
-0.3010 WATERLOO AT -0.0378
-0.3010 WAYNE AT 0.0000
-0.6021 WEST COVINA 0.0000
-0.6021 WEST VALLEY -0.2430
-0.3010 WESTMINSTER AT 0.0000
-0.3010 WICHITA AT 0.0000
-0.3010 WILMINGTON AT 0.0000
-0.3010 WINSTON AT -0.0381
-0.3010 WINTER HAVEN 0.0000
-0.3010 WORCESTER AT 0.0000
-0.3010 WORTH AT 0.0000
-0.3010 YAKIMA AT 0.0000
-0.3010 YONKERS AT 0.0000
-0.4771 YORK AT 0.0000
-0.7782 YORK CITY 0.0000

\3-grams:
-1.6055 <s> TRAIN EIGHT
-1.5670 <s> TRAIN EIGHTEEN
-1.6217 <s> TRAIN ELEVEN
-1.6047 <s> TRAIN FIFTEEN
-1.5987 <s> TRAIN FIVE
-1.6146 <s> TRAIN FOUR
-1.5994 <s> TRAIN FOURTEEN
-1.6077 <s> TRAIN NINE
-1.5920 <s> TRAIN NINETEEN
-1.5987 <s> TRAIN ONE
-1.6240 <s> TRAIN SEVEN
-1.6139 <s> TRAIN SEVENTEEN
-1.5928 <s> TRAIN SIX
-1.5733 <s> TRAIN SIXTEEN
-1.5884 <s> TRAIN TEN
-1.6070 <s> TRAIN THIRTEEN
-1.5987 <s> TRAIN THREE
-1.6070 <s> TRAIN TWELVE
-1.6328 <s> TRAIN TWENTY
-1.5987 <s> TRAIN TWO
-1.7782 ABERDEEN AT EIGHT
-1.4771 ABERDEEN AT ELEVEN
-1.1761 ABERDEEN AT FIVE
-1.1761 ABERDEEN AT FOUR
-1.4771 ABERDEEN AT NINE
-1.1761 ABERDEEN AT ONE
-1.3010 ABERDEEN AT SEVEN
-1.3010 ABERDEEN AT SIX
-1.4771 ABERDEEN AT TEN
-1.3010 ABERDEEN AT THREE
-1.4771 ABERDEEN AT TWO
-1.3010 ABILENE AT EIGHT
-1.4771 ABILENE AT FIVE
-1.0792 ABILENE AT FOUR
-1.1761 ABILENE AT NINE
-1.4771 ABILENE AT ONE
-1.3010 ABILENE AT SEVEN
-1.7782 ABILENE AT SIX
-1.1761 ABILENE AT TEN
-1.7782 ABILENE AT THREE
-1.0792 ABILENE AT TWO
-1.1761 AIR AT EIGHT
-1.4771 AIR AT ELEVEN
-1.1761 AIR AT FIVE
-1.7782 AIR AT FOUR
-1.7782 AIR AT NINE
-1.0792 AIR AT ONE
-1.1761 AIR AT SEVEN
-1.7782 AIR AT SIX
-1.4771 AIR AT TEN
-1.3010 AIR AT THREE
-1.3010 AIR AT TWO
-1.4771 AKRON AT EIGHT
-1.4771 AKRON AT ELEVEN
-1.0792 AKRON AT FOUR
-1.3010 AKRON AT NINE
-1.1761 AKRON AT ONE
-1.1761 AKRON AT SEVEN
-1.7782 AKRON AT SIX
-1.4771 AKRON AT TEN
-1.3010 AKRON AT THREE
-1.1761 AKRON AT TWO
-1.7782 ALBANY AT EIGHT
-1.1761 ALBANY AT FIVE
-1.0000 ALBANY AT NINE
-1.7782 ALBANY AT ONE
-1.1761 ALBANY AT SEVEN
-1.0792 ALBANY AT SIX
-1.7782 ALBANY AT TEN
-1.3010 ALBANY AT THREE
-1.0792 ALBANY AT TWO
-1.0000 ALBUQUERQUE AT EIGHT
-1.7782 ALBUQUERQUE AT ELEVEN
-1.4771 ALBUQUERQUE AT FIVE
-1.7782 ALBUQUERQUE AT FOUR
-1.1761 ALBUQUERQUE AT NINE
-1.4771 ALBUQUERQUE AT SEVEN
-1.3010 ALBUQUERQUE AT SIX
-1.4771 ALBUQUERQUE AT TEN
-1.4771 ALBUQUERQUE AT THREE
-0.9331 ALBUQUERQUE AT TWO
-1.1761 ALEXANDRIA AT EIGHT
-1.7782 ALEXANDRIA AT ELEVEN
-1.7782 ALEXANDRIA AT FIVE
-1.4771 ALEXANDRIA AT FOUR
-1.1761 ALEXANDRIA AT NINE
-1.3010 ALEXANDRIA AT ONE
-1.3010 ALEXANDRIA AT SEVEN
-1.0792 ALEXANDRIA AT SIX
-1.7782 ALEXANDRIA AT TEN
-1.1761 ALEXANDRIA AT THREE
-1.4771 ALEXANDRIA AT TWO
-1.1761 ALLENTOWN AT EIGHT
-1.4771 ALLENTOWN AT ELEVEN
-1.3010 ALLENTOWN AT FIVE
-1.3010 ALLENTOWN AT FOUR
-1.1761 ALLENTOWN AT NINE
-1.4771 ALLENTOWN AT ONE
-1.7782 ALLENTOWN AT SEVEN
-1.1761 ALLENTOWN AT SIX
-1.3010 ALLENTOWN AT TEN
-1.7782 ALLENTOWN AT THREE
-1.3010 ALLENTOWN AT TWO
-1.4771 AMARILLO AT EIGHT
-1.7782 AMARILLO AT ELEVEN
-1.3010 AMARILLO AT FIVE
-1.4771 AMARILLO AT FOUR
-1.3010 AMARILLO AT NINE
-1.1761 AMARILLO AT ONE
-1.1761 AMARILLO AT SEVEN
-1.4771 AMARILLO AT SIX
-1.4771 AMARILLO AT TEN
-1.4771 AMARILLO AT THREE
-1.0792 AMARILLO AT TWO
-1.7782 ANA AT EIGHT
-1.7782 ANA AT ELEVEN
-1.4771 ANA AT FIVE
-1.1761 ANA AT FOUR
-1.3010 ANA AT NINE
-1.0792 ANA AT ONE
-1.4771 ANA AT SEVEN
-1.4771 ANA AT SIX
-0.9331 ANA AT TEN
-1.3010 ANA AT THREE
-1.7782 ANAHEIM AT ELEVEN
-1.4771 ANAHEIM AT FIVE
-1.1761 ANAHEIM AT FOUR
-1.4771 ANAHEIM AT NINE
-1.1761 ANAHEIM AT ONE
-1.1761 ANAHEIM AT SEVEN
-1.1761 ANAHEIM AT SIX
-1.3010 ANAHEIM AT TEN
-1.1761 ANAHEIM AT THREE
-1.4771 ANAHEIM AT TWO
-1.1761 ANCHORAGE AT EIGHT
-1.0792 ANCHORAGE AT ELEVEN
-1.4771 ANCHORAGE AT FIVE
-1.7782 ANCHORAGE AT FOUR
-1.1761 ANCHORAGE AT NINE
-1.7782 ANCHORAGE AT ONE
-1.1761 ANCHORAGE AT SEVEN
-1.7782 ANCHORAGE AT SIX
-1.4771 ANCHORAGE AT TEN
-1.1761 ANCHORAGE AT THREE
-1.4771 ANCHORAGE AT TWO
-1.7782 ANGELES AT EIGHT
-1.3010 ANGELES AT ELEVEN
-1.3010 ANGELES AT FIVE
-1.4771 ANGELES AT FOUR
-1.1761 ANGELES AT NINE
-1.0792 ANGELES AT ONE
-1.4771 ANGELES AT SEVEN
-1.7782 ANGELES AT SIX
-1.3010 ANGELES AT TEN
-1.3010 ANGELES AT THREE
-1.3010 ANGELES AT TWO
-0.3010 ANN ARBOR AT
-1.4771 ANTIOCH AT EIGHT
-1.3010 ANTIOCH AT ELEVEN
-0.9331 ANTIOCH AT FIVE
-1.7782 ANTIOCH AT FOUR
-1.7782 ANTIOCH AT NINE
-1.0792 ANTIOCH AT ONE
-1.4771 ANTIOCH AT SEVEN
-1.7782 ANTIOCH AT SIX
-1.1761 ANTIOCH AT TEN
-1.3010 ANTIOCH AT THREE
-1.7782 ANTIOCH AT TWO
-1.4771 ANTONIO AT EIGHT
-1.0792 ANTONIO AT ELEVEN
-1.4771 ANTONIO AT FIVE
-1.7782 ANTONIO AT FOUR
-1.4771 ANTONIO AT NINE
-1.0792 ANTONIO AT ONE
-1.1761 ANTONIO AT SEVEN
-1.4771 ANTONIO AT TEN
-1.4771 ANTONIO AT THREE
-1.0792 ANTONIO AT TWO
-0.3010 APPLE VALLEY AT
-1.1761 APPLETON AT EIGHT
-1.3010 APPLETON AT ELEVEN
-1.7782 APPLETON AT FIVE
-1.4771 APPLETON AT FOUR
-1.4771 APPLETON AT NINE
-1.4771 APPLETON AT ONE
-1.4771 APPLETON AT SEVEN
-1.7782 APPLETON AT SIX
-1.4771 APPLETON AT TEN
-0.8751 APPLETON AT THREE
-1.3010 APPLETON AT TWO
-1.3010 ARBOR AT EIGHT
-1.3010 ARBOR AT ELEVEN
-1.7782 ARBOR AT FIVE
-1.3010 ARBOR AT FOUR
-1.7782 ARBOR AT NINE
-1.1761 ARBOR AT ONE
-1.3010 ARBOR AT SEVEN
-1.4771 ARBOR AT SIX
-1.3010 ARBOR AT TEN
-1.0792 ARBOR AT THREE
-1.4771 ARBOR AT TWO
-1.3010 ARLINGTON AT EIGHT
-1.7782 ARLINGTON AT ELEVEN
-1.4771 ARLINGTON AT FIVE
-1.3010 ARLINGTON AT FOUR
-1.3010 ARLINGTON AT NINE
-1.0792 ARLINGTON AT ONE
-1.0792 ARLINGTON AT SEVEN
-1.1761 ARLINGTON AT SIX
-1.4771 ARLINGTON AT THREE
-1.4771 ARLINGTON AT TWO
-0.3010 ARRIVES ABERDEEN AT
-0.3010 ARRIVES ABILENE AT
-0.3010 ARRIVES AKRON AT
-0.3010 ARRIVES ALBANY AT
-0.3010 ARRIVES ALBUQUERQUE AT
-0.3010 ARRIVES ALEXANDRIA AT
-0.3010 ARRIVES ALLENTOWN AT
-0.3010 ARRIVES AMARILLO AT
-0.3010 ARRIVES ANAHEIM AT
-0.3010 ARRIVES ANCHORAGE AT
-0.3010 ARRIVES ANN ARBOR
-0.3010 ARRIVES ANTIOCH AT
-0.3010 ARRIVES APPLE VALLEY
-0.3010 ARRIVES APPLETON AT
-0.3010 ARRIVES ARLINGTON AT
-0.3010 ARRIVES ARVADA AT
-0.3010 ARRIVES ASHEVILLE AT
-0.3010 ARRIVES ATHENS AT
-0.3010 ARRIVES ATLANTA AT
-0.3010 ARRIVES ATLANTIC CITY
-0.3010 ARRIVES AUGUSTA AT
-0.3010 ARRIVES AURORA AT
-0.3010 ARRIVES AUSTIN AT
-0.3010 ARRIVES BAKERSFIELD AT
-0.3010 ARRIVES BALTIMORE AT
-0.3010 ARRIVES BARNSTABLE AT
-0.3010 ARRIVES BATON ROUGE
-0.3010 ARRIVES BEAUMONT AT
-0.3010 ARRIVES BEL AIR
-0.3010 ARRIVES BELLEVUE AT
-0.3010 ARRIVES BERKELEY AT
-0.3010 ARRIVES BETHLEHEM AT
-0.3010 ARRIVES BILLINGS AT
-0.3010 ARRIVES BIRMINGHAM AT
-0.3010 ARRIVES BLOOMINGTON AT
-0.6021 ARRIVES BOISE AT
-0.6021 ARRIVES BOISE CITY
-0.3010 ARRIVES BONITA SPRINGS
-0.3010 ARRIVES BOSTON AT
-0.3010 ARRIVES BOULDER AT
-0.3010 ARRIVES BRADENTON AT
-0.3010 ARRIVES BREMERTON AT
-0.3010 ARRIVES BRIDGEPORT AT
-0.3010 ARRIVES BRIGHTON AT
-0.3010 ARRIVES BROWNSVILLE AT
-0.3010 ARRIVES BRYAN AT
-0.3010 ARRIVES BUFFALO AT
-0.3010 ARRIVES BURBANK AT
-0.3010 ARRIVES BURLINGTON AT
-0.3010 ARRIVES CAMBRIDGE AT
-0.3010 ARRIVES CANTON AT
-0.3010 ARRIVES CAPE CORAL
-0.3010 ARRIVES CARROLLTON AT
-0.3010 ARRIVES CARY AT
-0.3010 ARRIVES CATHEDRAL CITY
-0.3010 ARRIVES CEDAR RAPIDS
-0.3010 ARRIVES CHAMPAIGN AT
-0.3010 ARRIVES CHANDLER AT
-0.3010 ARRIVES CHARLESTON AT
-0.3010 ARRIVES CHARLOTTE AT
-0.3010 ARRIVES CHATTANOOGA AT
-0.3010 ARRIVES CHESAPEAKE AT
-0.3010 ARRIVES CHICAGO AT
-0.3010 ARRIVES CHULA VISTA
-0.3010 ARRIVES CINCINNATI AT
-0.3010 ARRIVES CLARKE COUNTY
-0.3010 ARRIVES CLARKSVILLE AT
-0.3010 ARRIVES CLEARWATER AT
-0.3010 ARRIVES CLEVELAND AT
-0.3010 ARRIVES COLLEGE STATION
-0.3010 ARRIVES COLORADO SPRINGS
-0.3010 ARRIVES COLUMBIA AT
-0.3010 ARRIVES COLUMBUS AT
-0.3010 ARRIVES CONCORD AT
-0.3010 ARRIVES CORAL SPRINGS
-0.3010 ARRIVES CORONA AT
-0.3010 ARRIVES CORPUS CHRISTI
-0.3010 ARRIVES COSTA MESA
-0.3010 ARRIVES DALLAS AT
-0.3010 ARRIVES DALY CITY
-0.3010 ARRIVES DANBURY AT
-0.3010 ARRIVES DAVENPORT AT
-0.3010 ARRIVES DAVIDSON COUNTY
-0.3010 ARRIVES DAYTON AT
-0.3010 ARRIVES DAYTONA BEACH
-0.3010 ARRIVES DELTONA AT
-0.3010 ARRIVES DENTON AT
-0.3010 ARRIVES DENVER AT
-0.3010 ARRIVES DES MOINES
-0.3010 ARRIVES DETROIT AT
-0.3010 ARRIVES DOWNEY AT
-0.3010 ARRIVES DULUTH AT
-0.3010 ARRIVES DURHAM AT
-0.6021 ARRIVES EL MONTE
-0.6021 ARRIVES EL PASO
-0.3010 ARRIVES ELIZABETH AT
-0.3010 ARRIVES ELK GROVE
-0.3010 ARRIVES ELKHART AT
-0.3010 ARRIVES ERIE AT
-0.3010 ARRIVES ESCONDIDO AT
-0.3010 ARRIVES EUGENE AT
-0.3010 ARRIVES EVANSVILLE AT
-0.3010 ARRIVES FAIRFIELD AT
-0.3010 ARRIVES FARGO AT
-0.3010 ARRIVES FAYETTEVILLE AT
-0.3010 ARRIVES FITCHBURG AT
-0.3010 ARRIVES FLINT AT
-0.3010 ARRIVES FONTANA AT
-1.0792 ARRIVES FORT COLLINS
-1.0792 ARRIVES FORT LAUDERDALE
-1.0792 ARRIVES FORT SMITH
-1.0792 ARRIVES FORT WALTON
-1.0792 ARRIVES FORT WAYNE
-1.0792 ARRIVES FORT WORTH
-0.3010 ARRIVES FREDERICK AT
-0.3010 ARRIVES FREMONT AT
-0.3010 ARRIVES FRESNO AT
-0.3010 ARRIVES FULLERTON AT
-0.3010 ARRIVES GAINESVILLE AT
-0.3010 ARRIVES GARDEN GROVE
-0.3010 ARRIVES GARLAND AT
-0.3010 ARRIVES GASTONIA AT
-0.3010 ARRIVES GILBERT AT
-0.3010 ARRIVES GLENDALE AT
-0.6021 ARRIVES GRAND PRAIRIE
-0.6021 ARRIVES GRAND RAPIDS
-0.3010 ARRIVES GRAYSLAKE AT
-0.3010 ARRIVES GREEN BAY
-0.3010 ARRIVES GREENBAY AT
-0.3010 ARRIVES GREENSBORO AT
-0.3010 ARRIVES GREENVILLE AT
-0.3010 ARRIVES GULFPORT-BILOXI AT
-0.3010 ARRIVES HAGERSTOWN AT
-0.3010 ARRIVES HAMPTON AT
-0.3010 ARRIVES HARLINGEN AT
-0.3010 ARRIVES HARRISBURG AT
-0.3010 ARRIVES HARTFORD AT
-0.3010 ARRIVES HAVRE DE
-0.3010 ARRIVES HAYWARD AT
-0.3010 ARRIVES HEMET AT
-0.3010 ARRIVES HENDERSON AT
-0.3010 ARRIVES HESPERIA AT
-0.3010 ARRIVES HIALEAH AT
-0.3010 ARRIVES HICKORY AT
-0.3010 ARRIVES HIGH POINT
-0.3010 ARRIVES HOLLYWOOD AT
-0.3010 ARRIVES HONOLULU AT
-0.3010 ARRIVES HOUMA AT
-0.3010 ARRIVES HOUSTON AT
-0.3010 ARRIVES HOWELL AT
-0.6021 ARRIVES HUNTINGTON AT
-0.6021 ARRIVES HUNTINGTON BEACH
-0.3010 ARRIVES HUNTSVILLE AT
-2.8865 ARRIVES IN ABERDEEN
-2.8865 ARRIVES IN ABILENE
-2.8865 ARRIVES IN AKRON
-2.8865 ARRIVES IN ALBANY
-2.8865 ARRIVES IN ALBUQUERQUE
-2.8865 ARRIVES IN ALEXANDRIA
-2.8865 ARRIVES IN ALLENTOWN
-2.8865 ARRIVES IN AMARILLO
-2.8865 ARRIVES IN ANAHEIM
-2.8865 ARRIVES IN ANCHORAGE
-2.8865 ARRIVES IN ANN
-2.8865 ARRIVES IN ANTIOCH
-2.8865 ARRIVES IN APPLE
-2.8865 ARRIVES IN APPLETON
-2.8865 ARRIVES IN ARLINGTON
-2.8865 ARRIVES IN ARVADA
-2.8865 ARRIVES IN ASHEVILLE
-2.8865 ARRIVES IN ATHENS
-2.8865 ARRIVES IN ATLANTA
-2.8865 ARRIVES IN ATLANTIC
-2.8865 ARRIVES IN AUGUSTA
-2.8865 ARRIVES IN AURORA
-2.8865 ARRIVES IN AUSTIN
-2.8865 ARRIVES IN BAKERSFIELD
-2.8865 ARRIVES IN BALTIMORE
-2.8865 ARRIVES IN BARNSTABLE
-2.8865 ARRIVES IN BATON
-2.8865 ARRIVES IN BEAUMONT
-2.8865 ARRIVES IN BEL
-2.8865 ARRIVES IN BELLEVUE
-2.8865 ARRIVES IN BERKELEY
-2.8865 ARRIVES IN BETHLEHEM
-2.8865 ARRIVES IN BILLINGS
-2.8865 ARRIVES IN BIRMINGHAM
-2.8865 ARRIVES IN BLOOMINGTON
-2.5855 ARRIVES IN BOISE
-2.8865 ARRIVES IN BONITA
-2.8865 ARRIVES IN BOSTON
-2.8865 ARRIVES IN BOULDER
-2.8865 ARRIVES IN BRADENTON
-2.8865 ARRIVES IN BREMERTON
-2.8865 ARRIVES IN BRIDGEPORT
-2.8865 ARRIVES IN BRIGHTON
-2.8865 ARRIVES IN BROWNSVILLE
-2.8865 ARRIVES IN BRYAN
-2.8865 ARRIVES IN BUFFALO
-2.8865 ARRIVES IN BURBANK
-2.8865 ARRIVES IN BURLINGTON
-2.8865 ARRIVES IN CAMBRIDGE
-2.8865 ARRIVES IN CANTON
-2.8865 ARRIVES IN CAPE
-2.8865 ARRIVES IN CARROLLTON
-2.8865 ARRIVES IN CARY
-2.8865 ARRIVES IN CATHEDRAL
-2.8865 ARRIVES IN CEDAR
-2.8865 ARRIVES IN CHAMPAIGN
-2.8865 ARRIVES IN CHANDLER
-2.8865 ARRIVES IN CHARLESTON
-2.8865 ARRIVES IN CHARLOTTE
-2.8865 ARRIVES IN CHATTANOOGA
-2.8865 ARRIVES IN CHESAPEAKE
-2.8865 ARRIVES IN CHICAGO
-2.8865 ARRIVES IN CHULA
-2.8865 ARRIVES IN CINCINNATI
-2.8865 ARRIVES IN CLARKE
-2.8865 ARRIVES IN CLARKSVILLE
-2.8865 ARRIVES IN CLEARWATER
-2.8865 ARRIVES IN CLEVELAND
-2.8865 ARRIVES IN COLLEGE
-2.8865 ARRIVES IN COLORADO
-2.8865 ARRIVES IN COLUMBIA
-2.8865 ARRIVES IN COLUMBUS
-2.8865 ARRIVES IN CONCORD
-2.8865 ARRIVES IN CORAL
-2.8865 ARRIVES IN CORONA
-2.8865 ARRIVES IN CORPUS
-2.8865 ARRIVES IN COSTA
-2.8865 ARRIVES IN DALLAS
-2.8865 ARRIVES IN DALY
-2.8865 ARRIVES IN DANBURY
-2.8865 ARRIVES IN DAVENPORT
-2.8865 ARRIVES IN DAVIDSON
-2.8865 ARRIVES IN DAYTON
-2.8865 ARRIVES IN DAYTONA
-2.8865 ARRIVES IN DELTONA
-2.8865 ARRIVES IN DENTON
-2.8865 ARRIVES IN DENVER
-2.8865 ARRIVES IN DES
-2.8865 ARRIVES IN DETROIT
-2.8865 ARRIVES IN DOWNEY
-2.8865 ARRIVES IN DULUTH
-2.8865 ARRIVES IN DURHAM
-2.5855 ARRIVES IN EL
-2.8865 ARRIVES IN ELIZABETH
-2.8865 ARRIVES IN ELK
-2.8865 ARRIVES IN ELKHART
-2.8865 ARRIVES IN ERIE
-2.8865 ARRIVES IN ESCONDIDO
-2.8865 ARRIVES IN EUGENE
-2.8865 ARRIVES IN EVANSVILLE
-2.8865 ARRIVES IN FAIRFIELD
-2.8865 ARRIVES IN FARGO
-2.8865 ARRIVES IN FAYETTEVILLE
-2.8865 ARRIVES IN FITCHBURG
-2.8865 ARRIVES IN FLINT
-2.8865 ARRIVES IN FONTANA
-2.1083 ARRIVES IN FORT
-2.8865 ARRIVES IN FREDERICK
-2.8865 ARRIVES IN FREMONT
-2.8865 ARRIVES IN FRESNO
-2.8865 ARRIVES IN FULLERTON
-2.8865 ARRIVES IN GAINESVILLE
-2.8865 ARRIVES IN GARDEN
-2.8865 ARRIVES IN GARLAND
-2.8865 ARRIVES IN GASTONIA
-2.8865 ARRIVES IN GILBERT
-2.8865 ARRIVES IN GLENDALE
-2.5855 ARRIVES IN GRAND
-2.8865 ARRIVES IN GRAYSLAKE
-2.8865 ARRIVES IN GREEN
-2.8865 ARRIVES IN GREENBAY
-2.8865 ARRIVES IN GREENSBORO
-2.8865 ARRIVES IN GREENVILLE
-2.8865 ARRIVES IN GULFPORT-BILOXI
-2.8865 ARRIVES IN HAGERSTOWN
-2.8865 ARRIVES IN HAMPTON
-2.8865 ARRIVES IN HARLINGEN
-2.8865 ARRIVES IN HARRISBURG
-2.8865 ARRIVES IN HARTFORD
-2.8865 ARRIVES IN HAVRE
-2.8865 ARRIVES IN HAYWARD
-2.8865 ARRIVES IN HEMET
-2.8865 ARRIVES IN HENDERSON
-2.8865 ARRIVES IN HESPERIA
-2.8865 ARRIVES IN HIALEAH
-2.8865 ARRIVES IN HICKORY
-2.8865 ARRIVES IN HIGH
-2.8865 ARRIVES IN HOLLYWOOD
-2.8865 ARRIVES IN HONOLULU
-2.8865 ARRIVES IN HOUMA
-2.8865 ARRIVES IN HOUSTON
-2.8865 ARRIVES IN HOWELL
-2.5855 ARRIVES IN HUNTINGTON
-2.8865 ARRIVES IN HUNTSVILLE
-2.8865 ARRIVES IN INDEPENDENCE
-2.8865 ARRIVES IN INDIANAPOLIS
-2.8865 ARRIVES IN INGLEWOOD
-2.8865 ARRIVES IN IRVINE
-2.8865 ARRIVES IN IRVING
-2.8865 ARRIVES IN JACKSON
-2.8865 ARRIVES IN JACKSONVILLE
-2.8865 ARRIVES IN JEFFERSON
-2.8865 ARRIVES IN JERSEY
-2.8865 ARRIVES IN JOHNSON
-2.8865 ARRIVES IN JOLIET
-2.8865 ARRIVES IN KAILUA
-2.8865 ARRIVES IN KALAMAZOO
-2.8865 ARRIVES IN KANEOHE
-2.8865 ARRIVES IN KANSAS
-2.8865 ARRIVES IN KENNEWICK
-2.8865 ARRIVES IN KENOSHA
-2.8865 ARRIVES IN KILLEEN
-2.8865 ARRIVES IN KISSIMMEE
-2.8865 ARRIVES IN KNOXVILLE
-2.8865 ARRIVES IN LACEY
-2.8865 ARRIVES IN LAFAYETTE
-2.8865 ARRIVES IN LAKE
-2.8865 ARRIVES IN LAKELAND
-2.8865 ARRIVES IN LAKEWOOD
-2.8865 ARRIVES IN LANCASTER
-2.8865 ARRIVES IN LANSING
-2.8865 ARRIVES IN LAREDO
-2.5855 ARRIVES IN LAS
-2.8865 ARRIVES IN LAYTON
-2.8865 ARRIVES IN LEOMINSTER
-2.8865 ARRIVES IN LEWISVILLE
-2.8865 ARRIVES IN LEXINGTON
-2.8865 ARRIVES IN LINCOLN
-2.8865 ARRIVES IN LITTLE
-2.8865 ARRIVES IN LONG
-2.8865 ARRIVES IN LORAIN
-2.8865 ARRIVES IN LOS
-2.8865 ARRIVES IN LOUISVILLE
-2.8865 ARRIVES IN LOWELL
-2.8865 ARRIVES IN LUBBOCK
-2.8865 ARRIVES IN MACON
-2.8865 ARRIVES IN MADISON
-2.8865 ARRIVES IN MANCHESTER
-2.8865 ARRIVES IN MARINA
-2.8865 ARRIVES IN MARYSVILLE
-2.8865 ARRIVES IN MCALLEN
-2.8865 ARRIVES IN MCHENRY
-2.8865 ARRIVES IN MEDFORD
-2.8865 ARRIVES IN MELBOURNE
-2.8865 ARRIVES IN MEMPHIS
-2.8865 ARRIVES IN MERCED
-2.8865 ARRIVES IN MESA
-2.8865 ARRIVES IN MESQUITE
-2.8865 ARRIVES IN MIAMI
-2.8865 ARRIVES IN MILWAUKEE
-2.8865 ARRIVES IN MINNEAPOLIS
-2.8865 ARRIVES IN MIRAMAR
-2.8865 ARRIVES IN MISSION
-2.8865 ARRIVES IN MOBILE
-2.8865 ARRIVES IN MODESTO
-2.8865 ARRIVES IN MONROE
-2.8865 ARRIVES IN MONTEREY
-2.8865 ARRIVES IN MONTGOMERY
-2.8865 ARRIVES IN MORENO
-2.8865 ARRIVES IN MURFREESBORO
-2.8865 ARRIVES IN MURRIETA
-2.8865 ARRIVES IN MUSKEGON
-2.8865 ARRIVES IN MYRTLE
-2.8865 ARRIVES IN NAPERVILLE
-2.8865 ARRIVES IN NAPLES
-2.8865 ARRIVES IN NASHUA
-2.8865 ARRIVES IN NASHVILLE
-2.1083 ARRIVES IN NEW
-2.8865 ARRIVES IN NEWARK
-2.8865 ARRIVES IN NEWBURGH
-2.8865 ARRIVES IN NEWPORT
-2.8865 ARRIVES IN NORFOLK
-2.8865 ARRIVES IN NORMAL
-2.8865 ARRIVES IN NORMAN
-2.4094 ARRIVES IN NORTH
-2.8865 ARRIVES IN NORWALK
-2.8865 ARRIVES IN NORWICH
-2.8865 ARRIVES IN OAKLAND
-2.8865 ARRIVES IN OCALA
-2.8865 ARRIVES IN OCEANSIDE
-2.8865 ARRIVES IN ODESSA
-2.8865 ARRIVES IN OGDEN
-2.8865 ARRIVES IN OKLAHOMA
-2.8865 ARRIVES IN OLATHE
-2.8865 ARRIVES IN OLYMPIA
-2.8865 ARRIVES IN OMAHA
-2.8865 ARRIVES IN ONTARIO
-2.8865 ARRIVES IN ORANGE
-2.8865 ARRIVES IN OREM
-2.8865 ARRIVES IN ORLANDO
-2.8865 ARRIVES IN OVERLAND
-2.8865 ARRIVES IN OXNARD
-2.5855 ARRIVES IN PALM
-2.8865 ARRIVES IN PALMDALE
-2.8865 ARRIVES IN PANAMA
-2.8865 ARRIVES IN PASADENA
-2.8865 ARRIVES IN PATERSON
-2.8865 ARRIVES IN PEMBROKE
-2.8865 ARRIVES IN PENSACOLA
-2.8865 ARRIVES IN PEORIA
-2.8865 ARRIVES IN PHILADELPHIA
-2.8865 ARRIVES IN PHOENIX
-2.8865 ARRIVES IN PITTSBURGH
-2.8865 ARRIVES IN PLANO
-2.8865 ARRIVES IN POMONA
-2.8865 ARRIVES IN POMPANO
-2.2844 ARRIVES IN PORT
-2.8865 ARRIVES IN PORTLAND
-2.8865 ARRIVES IN PORTSMOUTH
-2.8865 ARRIVES IN POUGHKEEPSIE
-2.8865 ARRIVES IN PROVIDENCE
-2.8865 ARRIVES IN PROVO
-2.8865 ARRIVES IN PUEBLO
-2.8865 ARRIVES IN PUNTA
-2.8865 ARRIVES IN RACINE
-2.8865 ARRIVES IN RALEIGH
-2.8865 ARRIVES IN RANCHO
-2.8865 ARRIVES IN READING
-2.8865 ARRIVES IN REDDING
-2.8865 ARRIVES IN RENO
-2.8865 ARRIVES IN RICHLAND
-2.5855 ARRIVES IN RICHMOND
-2.8865 ARRIVES IN RIVERSIDE
-2.8865 ARRIVES IN ROANOKE
-2.8865 ARRIVES IN ROCHESTER
-2.8865 ARRIVES IN ROCKFORD
-2.8865 ARRIVES IN ROSEVILLE
-2.8865 ARRIVES IN ROUND
-2.8865 ARRIVES IN SACRAMENTO
-2.8865 ARRIVES IN SAGINAW
-2.4094 ARRIVES IN SAINT
-2.8865 ARRIVES IN SALEM
-2.8865 ARRIVES IN SALINAS
-2.8865 ARRIVES IN SALT
-2.1083 ARRIVES IN SAN
-2.0414 ARRIVES IN SANTA
-2.8865 ARRIVES IN SARASOTA
-2.8865 ARRIVES IN SAVANNAH
-2.8865 ARRIVES IN SCOTTSDALE
-2.8865 ARRIVES IN SCRANTON
-2.8865 ARRIVES IN SEASIDE
-2.8865 ARRIVES IN SEATTLE
-2.8865 ARRIVES IN SEBASTIAN
-2.8865 ARRIVES IN SHREVEPORT
-2.8865 ARRIVES IN SIMI
-2.5855 ARRIVES IN SIOUX
-2.5855 ARRIVES IN SOUTH
-2.8865 ARRIVES IN SPARTANBURG
-2.8865 ARRIVES IN SPOKANE
-2.8865 ARRIVES IN SPRINGDALE
-2.8865 ARRIVES IN SPRINGFIELD
-2.4094 ARRIVES IN ST.
-2.8865 ARRIVES IN STAMFORD
-2.8865 ARRIVES IN STERLING
-2.8865 ARRIVES IN STOCKTON
-2.8865 ARRIVES IN SUNNYVALE
-2.8865 ARRIVES IN SYRACUSE
-2.8865 ARRIVES IN TACOMA
-2.8865 ARRIVES IN TALLAHASSEE
-2.8865 ARRIVES IN TAMPA
-2.8865 ARRIVES IN TEMECULA
-2.8865 ARRIVES IN TEMPE
-2.8865 ARRIVES IN THORNTON
-2.8865 ARRIVES IN THOUSAND
-2.8865 ARRIVES IN TOLEDO
-2.8865 ARRIVES IN TOPEKA
-2.8865 ARRIVES IN TORRANCE
-2.8865 ARRIVES IN TRENTON
-2.8865 ARRIVES IN TUCSON
-2.8865 ARRIVES IN TULSA
-2.8865 ARRIVES IN TUSCALOOSA
-2.8865 ARRIVES IN TYLER
-2.8865 ARRIVES IN UTICA
-2.8865 ARRIVES IN VALLEJO
-2.8865 ARRIVES IN VANCOUVER
-2.8865 ARRIVES IN VERO
-2.8865 ARRIVES IN VICTORVILLE
-2.8865 ARRIVES IN VIRGINIA
-2.8865 ARRIVES IN VISALIA
-2.8865 ARRIVES IN WACO
-2.8865 ARRIVES IN WARREN
-2.8865 ARRIVES IN WASHINGTON
-2.8865 ARRIVES IN WASHINGTON.D.C
-2.8865 ARRIVES IN WATERBURY
-2.8865 ARRIVES IN WATERLOO
-2.5855 ARRIVES IN WEST
-2.8865 ARRIVES IN WESTMINSTER
-2.8865 ARRIVES IN WICHITA
-2.8865 ARRIVES IN WILMINGTON
-2.8865 ARRIVES IN WINSTON
-2.8865 ARRIVES IN WINTER
-2.8865 ARRIVES IN WORCESTER
-2.8865 ARRIVES IN YAKIMA
-2.8865 ARRIVES IN YONKERS
-2.8865 ARRIVES IN YORK
-0.3010 ARRIVES INDEPENDENCE AT
-0.3010 ARRIVES INDIANAPOLIS AT
-0.3010 ARRIVES INGLEWOOD AT
-0.3010 ARRIVES IRVINE AT
-0.3010 ARRIVES IRVING AT
-0.3010 ARRIVES JACKSON AT
-0.3010 ARRIVES JACKSONVILLE AT
-0.3010 ARRIVES JEFFERSON AT
-0.3010 ARRIVES JERSEY CITY
-0.3010 ARRIVES JOHNSON CITY
-0.3010 ARRIVES JOLIET AT
-0.3010 ARRIVES KAILUA AT
-0.3010 ARRIVES KALAMAZOO AT
-0.3010 ARRIVES KANEOHE AT
-0.3010 ARRIVES KANSAS CITY
-0.3010 ARRIVES KENNEWICK AT
-0.3010 ARRIVES KENOSHA AT
-0.3010 ARRIVES KILLEEN AT
-0.3010 ARRIVES KISSIMMEE AT
-0.3010 ARRIVES KNOXVILLE AT
-0.3010 ARRIVES LACEY AT
-0.3010 ARRIVES LAFAYETTE AT
-0.3010 ARRIVES LAKE CHARLES
-0.3010 ARRIVES LAKELAND AT
-0.3010 ARRIVES LAKEWOOD AT
-0.3010 ARRIVES LANCASTER AT
-0.3010 ARRIVES LANSING AT
-0.3010 ARRIVES LAREDO AT
-0.6021 ARRIVES LAS CRUCES
-0.6021 ARRIVES LAS VEGAS
-0.3010 ARRIVES LAYTON AT
-0.3010 ARRIVES LEOMINSTER AT
-0.3010 ARRIVES LEWISVILLE AT
-0.3010 ARRIVES LEXINGTON AT
-0.3010 ARRIVES LINCOLN AT
-0.3010 ARRIVES LITTLE ROCK
-0.3010 ARRIVES LONG BEACH
-0.3010 ARRIVES LORAIN AT
-0.3010 ARRIVES LOS ANGELES
-0.3010 ARRIVES LOUISVILLE AT
-0.3010 ARRIVES LOWELL AT
-0.3010 ARRIVES LUBBOCK AT
-0.3010 ARRIVES MACON AT
-0.3010 ARRIVES MADISON AT
-0.3010 ARRIVES MANCHESTER AT
-0.3010 ARRIVES MARINA AT
-0.3010 ARRIVES MARYSVILLE AT
-0.3010 ARRIVES MCALLEN AT
-0.3010 ARRIVES MCHENRY AT
-0.3010 ARRIVES MEDFORD AT
-0.3010 ARRIVES MELBOURNE AT
-0.3010 ARRIVES MEMPHIS AT
-0.3010 ARRIVES MERCED AT
-0.3010 ARRIVES MESA AT
-0.3010 ARRIVES MESQUITE AT
-0.3010 ARRIVES MIAMI AT
-0.3010 ARRIVES MILWAUKEE AT
-0.3010 ARRIVES MINNEAPOLIS AT
-0.3010 ARRIVES MIRAMAR AT
-0.3010 ARRIVES MISSION VIEJO
-0.3010 ARRIVES MOBILE AT
-0.3010 ARRIVES MODESTO AT
-0.3010 ARRIVES MONROE AT
-0.3010 ARRIVES MONTEREY AT
-0.3010 ARRIVES MONTGOMERY AT
-0.3010 ARRIVES MORENO VALLEY
-0.3010 ARRIVES MURFREESBORO AT
-0.3010 ARRIVES MURRIETA AT
-0.3010 ARRIVES MUSKEGON AT
-0.3010 ARRIVES MYRTLE BEACH
-0.3010 ARRIVES NAPERVILLE AT
-0.3010 ARRIVES NAPLES AT
-0.3010 ARRIVES NASHUA AT
-0.3010 ARRIVES NASHVILLE AT
-1.0792 ARRIVES NEW BEDFORD
-1.0792 ARRIVES NEW HAVEN
-1.0792 ARRIVES NEW LONDON
-1.0792 ARRIVES NEW ORLEANS
-0.7782 ARRIVES NEW YORK
-0.3010 ARRIVES NEWARK AT
-0.3010 ARRIVES NEWBURGH AT
-0.3010 ARRIVES NEWPORT NEWS
-0.3010 ARRIVES NORFOLK AT
-0.3010 ARRIVES NORMAL AT
-0.3010 ARRIVES NORMAN AT
-0.7782 ARRIVES NORTH CHARLESTON
-0.7782 ARRIVES NORTH LAS
-0.7782 ARRIVES NORTH PORT
-0.3010 ARRIVES NORWALK AT
-0.3010 ARRIVES NORWICH AT
-0.3010 ARRIVES OAKLAND AT
-0.3010 ARRIVES OCALA AT
-0.3010 ARRIVES OCEANSIDE AT
-0.3010 ARRIVES ODESSA AT
-0.3010 ARRIVES OGDEN AT
-0.3010 ARRIVES OKLAHOMA CITY
-0.3010 ARRIVES OLATHE AT
-0.3010 ARRIVES OLYMPIA AT
-0.3010 ARRIVES OMAHA AT
-0.3010 ARRIVES ONTARIO AT
-0.3010 ARRIVES ORANGE AT
-0.3010 ARRIVES OREM AT
-0.3010 ARRIVES ORLANDO AT
-0.3010 ARRIVES OVERLAND PARK
-0.3010 ARRIVES OXNARD AT
-0.6021 ARRIVES PALM BAY
-0.6021 ARRIVES PALM SPRINGS
-0.3010 ARRIVES PALMDALE AT
-0.3010 ARRIVES PANAMA CITY
-0.3010 ARRIVES PASADENA AT
-0.3010 ARRIVES PATERSON AT
-0.3010 ARRIVES PEMBROKE PINES
-0.3010 ARRIVES PENSACOLA AT
-0.3010 ARRIVES PEORIA AT
-0.3010 ARRIVES PHILADELPHIA AT
-0.3010 ARRIVES PHOENIX AT
-0.3010 ARRIVES PITTSBURGH AT
-0.3010 ARRIVES PLANO AT
-0.3010 ARRIVES POMONA AT
-0.3010 ARRIVES POMPANO BEACH
-0.9031 ARRIVES PORT ARTHUR
-0.9031 ARRIVES PORT ORANGE
-0.9031 ARRIVES PORT SAINT
-0.9031 ARRIVES PORT ST.
-0.3010 ARRIVES PORTLAND AT
-0.3010 ARRIVES PORTSMOUTH AT
-0.3010 ARRIVES POUGHKEEPSIE AT
-0.3010 ARRIVES PROVIDENCE AT
-0.3010 ARRIVES PROVO AT
-0.3010 ARRIVES PUEBLO AT
-0.3010 ARRIVES PUNTA GORDA
-0.3010 ARRIVES RACINE AT
-0.3010 ARRIVES RALEIGH AT
-0.3010 ARRIVES RANCHO CUCAMONGA
-0.3010 ARRIVES READING AT
-0.3010 ARRIVES REDDING AT
-0.3010 ARRIVES RENO AT
-0.3010 ARRIVES RICHLAND AT
-0.6021 ARRIVES RICHMOND AT
-0.6021 ARRIVES RICHMOND COUNTY
-0.3010 ARRIVES RIVERSIDE AT
-0.3010 ARRIVES ROANOKE AT
-0.3010 ARRIVES ROCHESTER AT
-0.3010 ARRIVES ROCKFORD AT
-0.3010 ARRIVES ROSEVILLE AT
-0.3010 ARRIVES ROUND LAKE
-0.3010 ARRIVES SACRAMENTO AT
-0.3010 ARRIVES SAGINAW AT
-0.7782 ARRIVES SAINT LOUIS
-0.7782 ARRIVES SAINT PAUL
-0.7782 ARRIVES SAINT PETERSBURG
-0.3010 ARRIVES SALEM AT
-0.3010 ARRIVES SALINAS AT
-0.3010 ARRIVES SALT LAKE
-1.0792 ARRIVES SAN ANTONIO
-1.0792 ARRIVES SAN BERNARDINO
-1.0792 ARRIVES SAN BUENAVENTURA
-1.0792 ARRIVES SAN DIEGO
-1.0792 ARRIVES SAN FRANCISCO
-1.0792 ARRIVES SAN JOSE
-1.1461 ARRIVES SANTA ANA
-1.1461 ARRIVES SANTA BARBARA
-1.1461 ARRIVES SANTA CLARA
-1.1461 ARRIVES SANTA CLARITA
-1.1461 ARRIVES SANTA CRUZ
-1.1461 ARRIVES SANTA MARIA
-1.1461 ARRIVES SANTA ROSA
-0.3010 ARRIVES SARASOTA AT
-0.3010 ARRIVES SAVANNAH AT
-0.3010 ARRIVES SCOTTSDALE AT
-0.3010 ARRIVES SCRANTON AT
-0.3010 ARRIVES SEASIDE AT
-0.3010 ARRIVES SEATTLE AT
-0.3010 ARRIVES SEBASTIAN AT
-0.3010 ARRIVES SHREVEPORT AT
-0.3010 ARRIVES SIMI VALLEY
-0.6021 ARRIVES SIOUX CITY
-0.6021 ARRIVES SIOUX FALLS
-0.6021 ARRIVES SOUTH BEND
-0.6021 ARRIVES SOUTH LYON
-0.3010 ARRIVES SPARTANBURG AT
-0.3010 ARRIVES SPOKANE AT
-0.3010 ARRIVES SPRINGDALE AT
-0.3010 ARRIVES SPRINGFIELD AT
-0.7782 ARRIVES ST. LOUIS
-0.7782 ARRIVES ST. PAUL
-0.7782 ARRIVES ST. PETERSBURG
-0.3010 ARRIVES STAMFORD AT
-0.3010 ARRIVES STERLING HEIGHTS
-0.3010 ARRIVES STOCKTON AT
-0.3010 ARRIVES SUNNYVALE AT
-0.3010 ARRIVES SYRACUSE AT
-0.3010 ARRIVES TACOMA AT
-0.3010 ARRIVES TALLAHASSEE AT
-0.3010 ARRIVES TAMPA AT
-0.3010 ARRIVES TEMECULA AT
-0.3010 ARRIVES TEMPE AT
-0.3010 ARRIVES THORNTON AT
-0.3010 ARRIVES THOUSAND OAKS
-0.3010 ARRIVES TOLEDO AT
-0.3010 ARRIVES TOPEKA AT
-0.3010 ARRIVES TORRANCE AT
-0.3010 ARRIVES TRENTON AT
-0.3010 ARRIVES TUCSON AT
-0.3010 ARRIVES TULSA AT
-0.3010 ARRIVES TUSCALOOSA AT
-0.3010 ARRIVES TYLER AT
-0.3010 ARRIVES UTICA AT
-0.3010 ARRIVES VALLEJO AT
-0.3010 ARRIVES VANCOUVER AT
-0.3010 ARRIVES VERO BEACH
-0.3010 ARRIVES VICTORVILLE AT
-0.3010 ARRIVES VIRGINIA BEACH
-0.3010 ARRIVES VISALIA AT
-0.3010 ARRIVES WACO AT
-0.3010 ARRIVES WARREN AT
-0.3010 ARRIVES WASHINGTON AT
-0.3010 ARRIVES WASHINGTON.D.C AT
-0.3010 ARRIVES WATERBURY AT
-0.3010 ARRIVES WATERLOO AT
-0.6021 ARRIVES WEST COVINA
-0.6021 ARRIVES WEST VALLEY
-0.3010 ARRIVES WESTMINSTER AT
-0.3010 ARRIVES WICHITA AT
-0.3010 ARRIVES WILMINGTON AT
-0.3010 ARRIVES WINSTON AT
-0.3010 ARRIVES WINTER HAVEN
-0.3010 ARRIVES WORCESTER AT
-0.3010 ARRIVES YAKIMA AT
-0.3010 ARRIVES YONKERS AT
-0.3010 ARRIVES YORK AT
-1.4771 ARTHUR AT EIGHT
-1.1761 ARTHUR AT ELEVEN
-1.7782 ARTHUR AT FIVE
-1.3010 ARTHUR AT FOUR
-1.4771 ARTHUR AT NINE
-1.3010 ARTHUR AT ONE
-1.3010 ARTHUR AT SEVEN
-1.0792 ARTHUR AT SIX
-1.4771 ARTHUR AT TEN
-1.7782 ARTHUR AT THREE
-1.1761 ARTHUR AT TWO
-0.9331 ARVADA AT EIGHT
-1.4771 ARVADA AT ELEVEN
-1.7782 ARVADA AT FIVE
-1.7782 ARVADA AT FOUR
-1.7782 ARVADA AT NINE
-1.4771 ARVADA AT ONE
-1.0000 ARVADA AT SEVEN
-1.4771 ARVADA AT SIX
-1.1761 ARVADA AT TEN
-1.3010 ARVADA AT THREE
-1.7782 ARVADA AT TWO
-1.3010 ASHEVILLE AT EIGHT
-1.4771 ASHEVILLE AT ELEVEN
-1.3010 ASHEVILLE AT FIVE
-1.7782 ASHEVILLE AT FOUR
-1.4771 ASHEVILLE AT ONE
-1.1761 ASHEVILLE AT SEVEN
-1.3010 ASHEVILLE AT SIX
-1.0792 ASHEVILLE AT TEN
-1.1761 ASHEVILLE AT THREE
-1.3010 ASHEVILLE AT TWO
-2.1677 AT EIGHT EIGHT
-2.1999 AT EIGHT EIGHTEEN
-1.9714 AT EIGHT ELEVEN
-2.0351 AT EIGHT FIFTEEN
-1.1378 AT EIGHT FIFTY
-2.0128 AT EIGHT FIVE
-1.0514 AT EIGHT FORTY
-2.0351 AT EIGHT FOUR
-1.9337 AT EIGHT FOURTEEN
-2.1999 AT EIGHT NINE
-2.1378 AT EIGHT NINETEEN
-2.0586 AT EIGHT ONE
-2.2347 AT EIGHT SEVEN
-2.0351 AT EIGHT SEVENTEEN
-2.0834 AT EIGHT SIX
-2.1999 AT EIGHT SIXTEEN
-2.1097 AT EIGHT TEN
-2.0128 AT EIGHT THIRTEEN
-1.0490 AT EIGHT THIRTY
-1.8989 AT EIGHT THREE
-2.0351 AT EIGHT TWELVE
-1.0886 AT EIGHT TWENTY
-1.8989 AT EIGHT TWO
-2.1497 AT ELEVEN EIGHT
-2.0917 AT ELEVEN EIGHTEEN
-2.0917 AT ELEVEN ELEVEN
-1.8978 AT ELEVEN FIFTEEN
-1.1285 AT ELEVEN FIFTY
-2.0170 AT ELEVEN FIVE
-1.0705 AT ELEVEN FORTY
-1.9341 AT ELEVEN FOUR
-2.2166 AT ELEVEN FOURTEEN
-1.9736 AT ELEVEN NINE
-2.1818 AT ELEVEN NINETEEN
-2.2166 AT ELEVEN ONE
-1.9948 AT ELEVEN SEVEN
-2.0917 AT ELEVEN SEVENTEEN
-2.3415 AT ELEVEN SIX
-1.9156 AT ELEVEN SIXTEEN
-2.0170 AT ELEVEN TEN
-2.0653 AT ELEVEN THIRTEEN
-1.0429 AT ELEVEN THIRTY
-2.0917 AT ELEVEN THREE
-1.9948 AT ELEVEN TWELVE
-1.0890 AT ELEVEN TWENTY
-1.9736 AT ELEVEN TWO
-2.0864 AT FIVE EIGHT
-2.1127 AT FIVE EIGHTEEN
-2.0864 AT FIVE ELEVEN
-2.2754 AT FIVE FIFTEEN
-1.1020 AT FIVE FIFTY
-1.8697 AT FIVE FIVE
-1.0591 AT FIVE FORTY
-2.2754 AT FIVE FOUR
-2.1707 AT FIVE FOURTEEN
-2.2029 AT FIVE NINE
-2.0864 AT FIVE NINETEEN
-1.9946 AT FIVE ONE
-2.3168 AT FIVE SEVEN
-2.2029 AT FIVE SEVENTEEN
-2.1707 AT FIVE SIX
-2.1127 AT FIVE SIXTEEN
-1.9189 AT FIVE TEN
-1.9189 AT FIVE THIRTEEN
-1.0313 AT FIVE THIRTY
-2.0158 AT FIVE THREE
-1.9946 AT FIVE TWELVE
-1.0813 AT FIVE TWENTY
-2.0615 AT FIVE TWO
-2.0468 AT FOUR EIGHT
-1.9453 AT FOUR EIGHTEEN
-1.9105 AT FOUR ELEVEN
-1.9831 AT FOUR FIFTEEN
-1.1107 AT FOUR FIFTY
-2.1794 AT FOUR FIVE
-1.0631 AT FOUR FORTY
-2.0245 AT FOUR FOUR
-2.0245 AT FOUR FOURTEEN
-2.1794 AT FOUR NINE
-1.9105 AT FOUR NINETEEN
-3.3255 AT FOUR OH
-2.0033 AT FOUR ONE
-2.4224 AT FOUR SEVEN
-2.2841 AT FOUR SEVENTEEN
-2.2463 AT FOUR SIX
-2.1214 AT FOUR SIXTEEN
-2.0033 AT FOUR TEN
-2.1214 AT FOUR THIRTEEN
-1.0333 AT FOUR THIRTY
-2.2116 AT FOUR THREE
-2.1794 AT FOUR TWELVE
-1.0900 AT FOUR TWENTY
-1.9276 AT FOUR TWO
-2.0979 AT NINE EIGHT
-2.0731 AT NINE EIGHTEEN
-2.0979 AT NINE ELEVEN
-2.0731 AT NINE FIFTEEN
-1.1270 AT NINE FIFTY
-2.0273 AT NINE FIVE
-1.1083 AT NINE FORTY
-2.2144 AT NINE FOUR
-2.0979 AT NINE FOURTEEN
-1.9667 AT NINE NINE
-1.9860 AT NINE NINETEEN
-3.3284 AT NINE OH
-2.0062 AT NINE ONE
-2.0062 AT NINE SEVEN
-2.3284 AT NINE SEVENTEEN
-1.9667 AT NINE SIX
-2.0062 AT NINE SIXTEEN
-1.9860 AT NINE TEN
-2.0979 AT NINE THIRTEEN
-1.0612 AT NINE THIRTY
-2.3284 AT NINE THREE
-1.9304 AT NINE TWELVE
-1.0361 AT NINE TWENTY
-1.9667 AT NINE TWO
-2.1478 AT ONE EIGHT
-2.0934 AT ONE EIGHTEEN
-2.0934 AT ONE ELEVEN
-2.0228 AT ONE FIFTEEN
-1.0591 AT ONE FIFTY
-2.0686 AT ONE FIVE
-1.1012 AT ONE FORTY
-2.0934 AT ONE FOUR
-2.0934 AT ONE FOURTEEN
-2.1777 AT ONE NINE
-1.9621 AT ONE NINETEEN
-1.9621 AT ONE ONE
-2.0451 AT ONE SEVEN
-2.0017 AT ONE SEVENTEEN
-2.0934 AT ONE SIX
-1.9621 AT ONE SIXTEEN
-2.0017 AT ONE TEN
-2.1478 AT ONE THIRTEEN
-1.0833 AT ONE THIRTY
-2.3696 AT ONE THREE
-1.9621 AT ONE TWELVE
-1.0614 AT ONE TWENTY
-2.0934 AT ONE TWO
-2.2931 AT SEVEN EIGHT
-2.1584 AT SEVEN EIGHTEEN
-2.1040 AT SEVEN ELEVEN
-2.2205 AT SEVEN FIFTEEN
-1.0840 AT SEVEN FIFTY
-1.9920 AT SEVEN FIVE
-1.0649 AT SEVEN FORTY
-2.1883 AT SEVEN FOUR
-2.0792 AT SEVEN FOURTEEN
-1.9727 AT SEVEN NINE
-2.2931 AT SEVEN NINETEEN
-2.0334 AT SEVEN ONE
-2.0122 AT SEVEN SEVEN
-2.1883 AT SEVEN SEVENTEEN
-2.2553 AT SEVEN SIX
-2.1040 AT SEVEN SIXTEEN
-2.0334 AT SEVEN TEN
-2.0792 AT SEVEN THIRTEEN
-1.0489 AT SEVEN THIRTY
-2.0122 AT SEVEN THREE
-1.9727 AT SEVEN TWELVE
-1.0378 AT SEVEN TWENTY
-2.1584 AT SEVEN TWO
-2.0049 AT SIX EIGHT
-1.9847 AT SIX EIGHTEEN
-2.1511 AT SIX ELEVEN
-2.4821 AT SIX FIFTEEN
-1.1340 AT SIX FIFTY
-1.9122 AT SIX FIVE
-1.0530 AT SIX FORTY
-2.1810 AT SIX FOUR
-2.0719 AT SIX FOURTEEN
-2.1230 AT SIX NINE
-2.2132 AT SIX NINETEEN
-2.3272 AT SIX ONE
-2.0719 AT SIX SEVEN
-1.9122 AT SIX SEVENTEEN
-1.9292 AT SIX SIX
-2.0967 AT SIX SIXTEEN
-2.1511 AT SIX TEN
-2.0719 AT SIX THIRTEEN
-1.0530 AT SIX THIRTY
-1.8648 AT SIX THREE
-2.0484 AT SIX TWELVE
-1.0507 AT SIX TWENTY
-2.2480 AT SIX TWO
-2.1875 AT TEN EIGHT
-2.1576 AT TEN EIGHTEEN
-2.0784 AT TEN ELEVEN
-2.1875 AT TEN FIFTEEN
-1.1576 AT TEN FIFTY
-2.0326 AT TEN FIVE
-1.0881 AT TEN FORTY
-2.0784 AT TEN FOUR
-2.0114 AT TEN FOURTEEN
-2.1295 AT TEN NINE
-2.4306 AT TEN NINETEEN
-2.1032 AT TEN ONE
-1.9357 AT TEN SEVEN
-2.0326 AT TEN SEVENTEEN
-1.9912 AT TEN SIX
-1.9912 AT TEN SIXTEEN
-2.0784 AT TEN TEN
-2.1295 AT TEN THIRTEEN
-1.0114 AT TEN THIRTY
-2.0114 AT TEN THREE
-2.0114 AT TEN TWELVE
-1.0305 AT TEN TWENTY
-2.1576 AT TEN TWO
-1.9235 AT THREE EIGHT
-1.9992 AT THREE EIGHTEEN
-2.1173 AT THREE ELEVEN
-2.1173 AT THREE FIFTEEN
-1.1943 AT THREE FIFTY
-2.0909 AT THREE FIVE
-1.0784 AT THREE FORTY
-1.9412 AT THREE FOUR
-1.9992 AT THREE FOURTEEN
-1.9064 AT THREE NINE
-2.1753 AT THREE NINETEEN
-1.9597 AT THREE ONE
-1.8900 AT THREE SEVEN
-2.2422 AT THREE SEVENTEEN
-2.1753 AT THREE SIX
-2.4183 AT THREE SIXTEEN
-1.9992 AT THREE TEN
-1.8443 AT THREE THIRTEEN
-1.0495 AT THREE THIRTY
-1.9064 AT THREE THREE
-1.9597 AT THREE TWELVE
-1.0909 AT THREE TWENTY
-2.0661 AT THREE TWO
-2.0435 AT TWO EIGHT
-1.9072 AT TWO EIGHTEEN
-2.1181 AT TWO ELEVEN
-2.3222 AT TWO FIFTEEN
-1.1263 AT TWO FIFTY
-2.1181 AT TWO FIVE
-1.0918 AT TWO FORTY
-2.0435 AT TWO FOUR
-1.9798 AT TWO FOURTEEN
-1.9798 AT TWO NINE
-2.0212 AT TWO NINETEEN
-3.3222 AT TWO OH
-2.1181 AT TWO ONE
-2.0669 AT TWO SEVEN
-2.0000 AT TWO SEVENTEEN
-2.0435 AT TWO SIX
-2.0918 AT TWO SIXTEEN
-2.1461 AT TWO TEN
-2.1461 AT TWO THIRTEEN
-1.0256 AT TWO THIRTY
-2.2430 AT TWO THREE
-2.0918 AT TWO TWELVE
-1.0481 AT TWO TWENTY
-2.1181 AT TWO TWO
-1.3010 ATHENS AT EIGHT
-1.4771 ATHENS AT ELEVEN
-1.1761 ATHENS AT FIVE
-1.1761 ATHENS AT FOUR
-1.3010 ATHENS AT NINE
-1.4771 ATHENS AT ONE
-1.4771 ATHENS AT SEVEN
-1.4771 ATHENS AT SIX
-1.7782 ATHENS AT TEN
-1.1761 ATHENS AT THREE
-1.3010 ATHENS AT TWO
-1.7782 ATLANTA AT EIGHT
-1.4771 ATLANTA AT ELEVEN
-1.7782 ATLANTA AT FIVE
-1.3010 ATLANTA AT FOUR
-1.1761 ATLANTA AT NINE
-1.1761 ATLANTA AT ONE
-1.0792 ATLANTA AT SEVEN
-1.1761 ATLANTA AT SIX
-1.4771 ATLANTA AT TEN
-1.1761 ATLANTA AT THREE
-0.3010 ATLANTIC CITY AT
-1.4771 AUGUSTA AT EIGHT
-1.0792 AUGUSTA AT ELEVEN
-1.3010 AUGUSTA AT FIVE
-1.7782 AUGUSTA AT FOUR
-1.4771 AUGUSTA AT NINE
-1.4771 AUGUSTA AT ONE
-1.1761 AUGUSTA AT SEVEN
-1.3010 AUGUSTA AT SIX
-1.0792 AUGUSTA AT TEN
-1.4771 AUGUSTA AT THREE
-1.7782 AUGUSTA AT TWO
-1.3010 AURORA AT EIGHT
-1.4771 AURORA AT ELEVEN
-1.4771 AURORA AT FIVE
-1.3010 AURORA AT FOUR
-1.1761 AURORA AT NINE
-1.4771 AURORA AT ONE
-1.3010 AURORA AT SEVEN
-1.0792 AURORA AT SIX
-1.3010 AURORA AT TEN
-1.7782 AURORA AT THREE
-1.4771 AURORA AT TWO
-1.7782 AUSTIN AT EIGHT
-1.1761 AUSTIN AT ELEVEN
-1.1761 AUSTIN AT FIVE
-1.1761 AUSTIN AT FOUR
-1.7782 AUSTIN AT NINE
-1.7782 AUSTIN AT ONE
-1.4771 AUSTIN AT SEVEN
-1.0792 AUSTIN AT SIX
-1.3010 AUSTIN AT TEN
-1.7782 AUSTIN AT THREE
-1.1761 AUSTIN AT TWO
-1.3010 BAKERSFIELD AT EIGHT
-1.0792 BAKERSFIELD AT ELEVEN
-1.7782 BAKERSFIELD AT FIVE
-1.7782 BAKERSFIELD AT FOUR
-1.4771 BAKERSFIELD AT NINE
-1.4771 BAKERSFIELD AT ONE
-1.7782 BAKERSFIELD AT SEVEN
-1.1761 BAKERSFIELD AT SIX
-1.4771 BAKERSFIELD AT TEN
-1.1761 BAKERSFIELD AT THREE
-1.0792 BAKERSFIELD AT TWO
-1.1761 BALTIMORE AT EIGHT
-1.3010 BALTIMORE AT ELEVEN
-1.7782 BALTIMORE AT FIVE
-1.4771 BALTIMORE AT FOUR
-1.1761 BALTIMORE AT NINE
-1.3010 BALTIMORE AT ONE
-1.7782 BALTIMORE AT SEVEN
-1.4771 BALTIMORE AT SIX
-1.1761 BALTIMORE AT TEN
-1.3010 BALTIMORE AT THREE
-1.3010 BALTIMORE AT TWO
-1.4771 BARBARA AT EIGHT
-1.7782 BARBARA AT ELEVEN
-1.7782 BARBARA AT FIVE
-1.0000 BARBARA AT FOUR
-1.0792 BARBARA AT NINE
-1.0792 BARBARA AT ONE
-1.1761 BARBARA AT SEVEN
-1.7782 BARBARA AT SIX
-1.7782 BARBARA AT TEN
-1.4771 BARBARA AT THREE
-1.4771 BARBARA AT TWO
-1.4771 BARNSTABLE AT EIGHT
-1.7782 BARNSTABLE AT ELEVEN
-1.1761 BARNSTABLE AT FIVE
-1.4771 BARNSTABLE AT FOUR
-1.3010 BARNSTABLE AT NINE
-1.4771 BARNSTABLE AT ONE
-1.3010 BARNSTABLE AT SEVEN
-1.4771 BARNSTABLE AT SIX
-1.3010 BARNSTABLE AT TEN
-1.1761 BARNSTABLE AT THREE
-1.1761 BARNSTABLE AT TWO
-0.3010 BATON ROUGE AT
-1.6021 BAY AT EIGHT
-1.2341 BAY AT ELEVEN
-1.7782 BAY AT FIVE
-1.0792 BAY AT FOUR
-1.1761 BAY AT NINE
-1.6021 BAY AT ONE
-1.4771 BAY AT SEVEN
-1.2341 BAY AT SIX
-1.3010 BAY AT TEN
-1.4771 BAY AT THREE
-1.3010 BAY AT TWO
-1.4314 BEACH AT EIGHT
-1.4102 BEACH AT ELEVEN
-1.2852 BEACH AT FIVE
-1.4536 BEACH AT FOUR
-1.2852 BEACH AT NINE
-1.3345 BEACH AT ONE
-1.4102 BEACH AT SEVEN
-1.2410 BEACH AT SIX
-1.3174 BEACH AT TEN
-1.2410 BEACH AT THREE
-1.4314 BEACH AT TWO
-1.3010 BEAUMONT AT EIGHT
-1.3010 BEAUMONT AT ELEVEN
-1.4771 BEAUMONT AT FIVE
-1.4771 BEAUMONT AT FOUR
-1.4771 BEAUMONT AT NINE
-1.3010 BEAUMONT AT ONE
-1.7782 BEAUMONT AT SEVEN
-0.9331 BEAUMONT AT SIX
-1.3010 BEAUMONT AT TEN
-1.3010 BEAUMONT AT THREE
-1.7782 BEAUMONT AT TWO
-1.4771 BEDFORD AT EIGHT
-1.4771 BEDFORD AT ELEVEN
-1.3010 BEDFORD AT FIVE
-1.7782 BEDFORD AT FOUR
-1.3010 BEDFORD AT NINE
-1.0792 BEDFORD AT ONE
-1.3010 BEDFORD AT SEVEN
-1.1761 BEDFORD AT SIX
-1.3010 BEDFORD AT TEN
